%YAML:1.0
---
opencv_ml_svm:
   format: 3
   svmType: C_SVC
   kernel:
      type: LINEAR
   C: 1.
   term_criteria: { iterations:10000000 }
   var_count: 400
   class_count: 17
   class_labels: !!opencv-matrix
      rows: 17
      cols: 1
      dt: i
      data: [ 43, 44, 47, 48, 49, 50, 51, 52, 53, 54, 55, 56, 57, 69, 78,
          83, 86 ]
   sv_total: 136
   support_vectors:
      - [ 0., 0., 0., 5.69097465e-05, 5.69097465e-05, 2.36566011e-05,
          4.88754304e-05, 4.4188746e-05, -1.02660724e-05, -1.4060055e-05,
          -1.4060055e-05, 8.25749248e-06, 4.28496933e-05, 2.36566011e-05,
          5.69097465e-05, 5.69097465e-05, 5.69097465e-05, 0., 0., 0., 0.,
          0., 0., 5.69097465e-05, 5.69097465e-05, 5.40084657e-05,
          5.69097465e-05, 4.73132022e-05, 0., 0., 0., 4.46350941e-06,
          5.69097465e-05, 4.44119214e-05, 5.69097465e-05, 5.69097465e-05,
          5.69097465e-05, 0., 0., 0., 0., 0., 0., 5.69097465e-05,
          5.69097465e-05, 5.69097465e-05, 5.69097465e-05, 4.73132022e-05,
          0., 0., 0., 4.46350941e-06, 5.69097465e-05, 5.64633956e-05,
          5.69097465e-05, 5.69097465e-05, 5.69097465e-05, 0., 0., 0., 0.,
          0., 0., 5.69097465e-05, 5.69097465e-05, 5.69097465e-05,
          5.69097465e-05, 4.73132022e-05, 0., 0., 0., 4.46350941e-06,
          5.69097465e-05, 4.4188746e-05, 5.69097465e-05, 5.69097465e-05,
          5.69097465e-05, 0., 0., 0., 0., 0., 0., 5.69097465e-05,
          5.69097465e-05, 5.69097465e-05, 5.69097465e-05, 4.73132022e-05,
          0., 0., 0., 4.46350941e-06, 5.69097465e-05, 4.4188746e-05,
          5.69097465e-05, 5.69097465e-05, 5.69097465e-05, 0., 0., 0., 0.,
          0., 0., 5.69097465e-05, 5.69097465e-05, 5.69097465e-05,
          5.69097465e-05, 4.73132022e-05, 0., 0., 0., 4.46350941e-06,
          5.69097465e-05, 4.4188746e-05, 5.69097465e-05, 5.69097465e-05,
          5.69097465e-05, 0., 0., 0., 0., 0., 0., 5.69097465e-05,
          5.69097465e-05, 5.69097465e-05, 5.69097465e-05, 4.73132022e-05,
          0., 0., 0., 4.46350941e-06, 5.69097465e-05, 4.4188746e-05,
          5.69097465e-05, 5.69097465e-05, 5.69097465e-05, 0., 0., 0., 0.,
          0., 0., 5.53475184e-05, 5.40084657e-05, 5.40084657e-05,
          5.40084657e-05, 4.12874651e-05, 0., 0., 0., 2.45493038e-06,
          5.22230621e-05, 4.12874651e-05, 5.40084657e-05, 5.40084657e-05,
          5.53475184e-05, 0., 0., 0., 0., 0., 0., 5.80256255e-06, 0.,
          -1.33905291e-06, 0., 0., 0., 0., 0., 0., 0., -1.27210023e-05,
          0., 0., 5.80256255e-06, 0., 0., 0., 0., 0., 0., 0., 0.,
          -2.76737592e-05, -6.91843979e-06, -6.91843979e-06,
          -5.80256255e-06, 0., 0., 0., 0., -1.27210023e-05, 0., 0., 0.,
          0., 0., 0., 0., 0., 0., 0., 0., -5.69097465e-05,
          -5.69097465e-05, -5.69097465e-05, -5.55706938e-05,
          -2.18711975e-05, 0., 0., 0., -1.27210023e-05, 0., 0., 0., 0.,
          0., 0., 0., 0., 0., 2.00857926e-06, 0., -5.69097465e-05,
          -5.69097465e-05, -5.69097465e-05, -5.69097465e-05,
          -2.34334257e-05, 0., 0., 0., -1.27210023e-05, 0., 0.,
          2.00857926e-06, 0., 0., 0., 0., 0., 0., 5.11071848e-05,
          4.66436759e-05, -1.02660724e-05, -1.02660724e-05,
          -1.89699149e-05, -5.69097465e-05, -1.36137041e-05, 0.,
          3.12445673e-06, 4.73132022e-05, 3.16909172e-05, 4.66436759e-05,
          4.66436759e-05, 5.19998866e-05, 0., 0., 0., 0., 0., 0.,
          5.69097465e-05, 5.69097465e-05, 0., 0., -9.59654517e-06,
          -4.79827286e-05, -8.92701905e-07, 0., 4.46350941e-06,
          5.69097465e-05, 2.27638993e-05, 5.69097465e-05, 5.69097465e-05,
          5.69097465e-05, 0., 0., 0., 0., 0., 0., 5.69097465e-05,
          5.69097465e-05, 0., 0., 3.57080762e-06, -7.81114159e-06, 0.,
          0., 4.46350941e-06, 5.37852902e-05, 4.24033396e-06,
          5.69097465e-05, 5.69097465e-05, 5.69097465e-05, 0., 0., 0., 0.,
          0., 0., 5.69097465e-05, 5.69097465e-05, 1.11587735e-06,
          3.54848999e-05, 4.64205004e-05, 0., 0., 0., 4.46350941e-06,
          2.94591628e-05, 0., 5.69097465e-05, 5.69097465e-05,
          5.69097465e-05, 0., 0., 0., 0., 0., 0., 5.69097465e-05,
          5.69097465e-05, 1.47295814e-05, 5.69097465e-05, 4.73132022e-05,
          0., 0., 0., -5.13303621e-06, 3.34763217e-06, 0.,
          5.69097465e-05, 5.69097465e-05, 5.69097465e-05, 0., 0., 0., 0.,
          0., 0., 5.69097465e-05, 5.69097465e-05, 1.8523564e-05,
          5.69097465e-05, 4.73132022e-05, 0., 0., -6.91843979e-06,
          -4.59741495e-05, 0., 0., 5.69097465e-05, 5.69097465e-05,
          5.69097465e-05, 0., 0., 0., 0., 0., 0., 5.69097465e-05,
          5.69097465e-05, 1.8523564e-05, 5.69097465e-05, 4.73132022e-05,
          0., -1.42832305e-05, -5.35621148e-05, -5.24462375e-05, 0., 0.,
          5.69097465e-05, 5.69097465e-05, 5.69097465e-05, 0., 0., 0., 0.,
          0., 0., 5.69097465e-05, 5.69097465e-05, 7.58796614e-06,
          5.19998866e-05, 3.59312507e-05, -3.72703034e-05,
          -5.6686571e-05, -5.69097465e-05, -4.68668513e-05, 0., 0.,
          5.69097465e-05, 5.69097465e-05, 5.69097465e-05, 0., 0., 0. ]
      - [ 0., 0., 0., 4.35169459e-05, 4.35169459e-05, 4.35169459e-05,
          4.35169459e-05, 0., -3.85679596e-05, -4.35169459e-05,
          -4.35169459e-05, -2.8630318e-06, 3.90951609e-05,
          4.35169459e-05, 4.35169459e-05, 4.35169459e-05, 4.35169459e-05,
          0., 0., 0., 0., 0., 0., 4.35169459e-05, 4.35169459e-05,
          4.35169459e-05, 4.35169459e-05, -6.82618747e-07,
          -4.35169459e-05, -4.35169459e-05, -4.28484163e-05,
          3.10226278e-06, 3.10961004e-05, 4.35169459e-05, 4.35169459e-05,
          4.35169459e-05, 4.35169459e-05, 0., 0., 0., 0., 0., 0.,
          4.35169459e-05, 4.35169459e-05, 4.35169459e-05, 4.35169459e-05,
          0., -4.35169459e-05, -4.35169459e-05, -3.45678563e-05,
          5.46094998e-06, 2.38459397e-05, 4.35169459e-05, 4.35169459e-05,
          4.35169459e-05, 4.35169459e-05, 0., 0., 0., 0., 0., 0.,
          4.35169459e-05, 4.35169459e-05, 4.35169459e-05, 4.35169459e-05,
          0., -4.35169459e-05, -4.35169459e-05, -2.47654898e-05,
          5.46094998e-06, 1.16925066e-05, 4.35169459e-05, 4.35169459e-05,
          4.35169459e-05, 4.35169459e-05, 0., 0., 0., 0., 0., 0.,
          4.35169459e-05, 4.35169459e-05, 4.35169459e-05, 4.35169459e-05,
          0., -4.35169459e-05, -4.35169459e-05, -1.48240988e-05,
          4.7109038e-06, 3.37499591e-06, 4.35169459e-05, 4.35169459e-05,
          4.35169459e-05, 4.35169459e-05, 0., 0., 0., 0., 0., 0.,
          4.35169459e-05, 4.35169459e-05, 4.35169459e-05, 4.35169459e-05,
          0., -4.35169459e-05, -4.3472377e-05, -4.17723004e-06,
          -3.428333e-06, 0., 4.35169459e-05, 4.35169459e-05,
          4.35169459e-05, 4.35169459e-05, 0., 0., 0., 0., 0., 0.,
          4.35169459e-05, 4.35169459e-05, 4.35169459e-05, 4.35169459e-05,
          0., -4.35169459e-05, -4.01701291e-05, -5.04344484e-07,
          -1.31110819e-05, 0., 4.35169459e-05, 4.35169459e-05,
          4.35169459e-05, 4.35169459e-05, 0., 0., 0., 0., 0., 0.,
          4.2322361e-05, 4.12984336e-05, 4.12984336e-05, 4.12984336e-05,
          -6.48487821e-06, -4.35169459e-05, -3.12298071e-05, 0.,
          -2.38101384e-05, -2.90112962e-06, 4.12984336e-05,
          4.12984336e-05, 4.12984336e-05, 4.2151707e-05, 0., 0., 0., 0.,
          0., 0., 4.43702174e-06, 0., 0., 0., -4.35169459e-05,
          -4.35169459e-05, -2.25774584e-05, 0., -3.62157443e-05,
          -4.35169459e-05, 0., 0., 0., 4.77833146e-06, 0., 0., 0., 0.,
          0., 0., 0., 0., 0., 0., -4.35169459e-05, -4.35169459e-05,
          -1.2419694e-05, -1.40333532e-06, -4.26343431e-05,
          -4.35169459e-05, 0., 0., 0., 0., 0., 0., 0., 0., 0., 0., 0.,
          0., 0., 0., -4.35169459e-05, -4.30266919e-05, -2.15108366e-06,
          -1.18502203e-05, -4.35169459e-05, -4.35169459e-05, 0., 0., 0.,
          0., 0., 0., 0., 0., 0., 0., 1.53589224e-06, 0., 0., 0.,
          -4.35169459e-05, -3.67417961e-05, 0., -2.21199807e-05,
          -4.35169459e-05, -4.35169459e-05, 0., 0., 0., 2.21851087e-06,
          0., 0., 0., 0., 0., 0., 3.97625408e-05, 3.56668315e-05,
          3.56668315e-05, 3.56668315e-05, -8.53273468e-06,
          -2.46710315e-05, 0., -3.24103021e-05, -3.97625408e-05,
          -5.80225924e-06, 3.56668315e-05, 3.56668315e-05,
          3.56668315e-05, 3.9079925e-05, 0., 0., 0., 0., 0., 0.,
          4.35169459e-05, 4.35169459e-05, 4.35169459e-05, 4.35169459e-05,
          0., -1.79480721e-05, -8.97842028e-07, -4.19810531e-05,
          -3.80559941e-05, 0., 4.35169459e-05, 4.35169459e-05,
          4.35169459e-05, 4.35169459e-05, 0., 0., 0., 0., 0., 0.,
          4.35169459e-05, 4.35169459e-05, 4.35169459e-05, 4.35169459e-05,
          0., -9.08926722e-06, -7.42728889e-06, -4.35169459e-05,
          -3.80559941e-05, 0., 4.35169459e-05, 4.35169459e-05,
          4.35169459e-05, 4.35169459e-05, 0., 0., 0., 0., 0., 0.,
          4.35169459e-05, 4.35169459e-05, 4.35169459e-05, 4.35169459e-05,
          1.73702517e-06, -1.31304932e-06, -1.81187261e-05,
          -4.35169459e-05, -3.80559941e-05, 0., 4.35169459e-05,
          4.35169459e-05, 4.35169459e-05, 4.35169459e-05, 0., 0., 0., 0.,
          0., 0., 4.35169459e-05, 4.35169459e-05, 4.35169459e-05,
          4.35169459e-05, 8.54150312e-06, 0., -2.52656628e-05,
          -4.35169459e-05, -3.80559941e-05, 0., 4.35169459e-05,
          4.35169459e-05, 4.35169459e-05, 4.35169459e-05, 0., 0., 0., 0.,
          0., 0., 4.35169459e-05, 4.35169459e-05, 4.35169459e-05,
          4.35169459e-05, 2.01753519e-05, -4.45685657e-08,
          -3.59723381e-05, -4.35169459e-05, -3.80559941e-05, 0.,
          4.35169459e-05, 4.35169459e-05, 4.35169459e-05, 4.35169459e-05,
          0., 0., 0., 0., 0., 0., 4.35169459e-05, 4.35169459e-05,
          4.35169459e-05, 4.35169459e-05, 2.88124611e-05,
          -2.87294915e-06, -4.35169459e-05, -4.35169459e-05,
          -3.80559941e-05, 0., 4.35169459e-05, 4.35169459e-05,
          4.35169459e-05, 4.35169459e-05, 0., 0., 0., 0., 0., 0.,
          4.35169459e-05, 4.35169459e-05, 4.35169459e-05, 4.35169459e-05,
          3.46874695e-05, -1.38611276e-05, -4.35169459e-05,
          -4.35169459e-05, -3.60081394e-05, 0., 4.35169459e-05,
          4.35169459e-05, 4.35169459e-05, 4.35169459e-05, 0., 0., 0. ]
      - [ 0., 0., 0., 1.46345637e-05, 3.12689335e-05, 4.7180074e-05,
          3.51491508e-05, 3.3298471e-05, -1.73417402e-06,
          -1.73576052e-06, -1.73576052e-06, 6.92738377e-06,
          3.80248384e-05, 3.51491508e-05, 4.7180074e-05, 3.3293989e-05,
          1.69489103e-05, 0., 0., 0., 0., 0., 0., 3.47404566e-05,
          5.02176554e-05, 5.02176554e-05, 3.8871749e-05, 4.10175853e-05,
          0., 0., 0., 3.93863957e-06, 4.94856613e-05, 3.9499173e-05,
          5.02176554e-05, 5.02176554e-05, 4.09602653e-05, 0., 0., 0., 0.,
          0., 0., 4.66014862e-05, 5.02176554e-05, 5.02176554e-05,
          4.44662728e-05, 4.17495794e-05, -3.65996868e-07,
          -7.84279018e-06, -7.63364915e-06, 3.78178379e-06,
          5.02176554e-05, 4.56165508e-05, 5.02176554e-05, 5.02176554e-05,
          4.89158338e-05, 0., 0., 0., 0., 0., 0., 4.86265417e-05,
          5.02176554e-05, 5.02176554e-05, 4.80216731e-05, 4.17495794e-05,
          -4.02596561e-06, -1.3332743e-05, -1.3332743e-05,
          -6.10178802e-07, 5.02176554e-05, 4.91719475e-05,
          5.02176554e-05, 5.02176554e-05, 4.86265417e-05, 0., 0., 0., 0.,
          0., 0., 4.86265417e-05, 5.02176554e-05, 5.02176554e-05,
          4.88059522e-05, 4.17495794e-05, -5.48995331e-06,
          -2.34580129e-05, -2.49044806e-05, -3.11987174e-06,
          5.02176554e-05, 5.02176554e-05, 5.02176554e-05, 5.02176554e-05,
          4.86265417e-05, 0., 0., 0., 0., 0., 0., 4.86265417e-05,
          5.02176554e-05, 5.02176554e-05, 4.92765175e-05, 4.17495794e-05,
          -5.48995331e-06, -4.50103726e-05, -4.77586582e-05,
          -4.5663387e-06, 5.02176554e-05, 5.02176554e-05, 5.02176554e-05,
          5.02176554e-05, 4.86265417e-05, 0., 0., 0., 0., 0., 0.,
          4.86265417e-05, 5.02176554e-05, 5.02176554e-05, 4.89628073e-05,
          4.17495794e-05, -5.48995331e-06, -4.54443107e-05,
          -5.02176554e-05, -7.08637799e-06, 5.02176554e-05,
          5.02176554e-05, 5.02176554e-05, 5.02176554e-05, 4.86265417e-05,
          0., 0., 0., 0., 0., 0., 4.72480169e-05, 4.76575369e-05,
          4.76575369e-05, 4.67686878e-05, 3.64324151e-05,
          -5.48995331e-06, -4.54443107e-05, -5.02176554e-05,
          -8.07448669e-06, 4.60820811e-05, 4.76575369e-05,
          4.76575369e-05, 4.76575369e-05, 4.72480169e-05, 0., 0., 0., 0.,
          0., 0., 3.52911752e-06, 0., 0., -1.56855799e-06, 0.,
          -5.48995331e-06, -4.54443107e-05, -5.02176554e-05,
          -1.02407384e-05, 0., 0., 0., 0., 3.52911752e-06, 0., 0., 0.,
          0., 0., 0., -1.5911138e-06, 0., 0., -1.56855799e-06, 0.,
          -5.48995331e-06, -4.54443107e-05, -5.02176554e-05,
          -1.02407384e-05, 0., 0., 0., 0., -1.5911138e-06, 0., 0., 0.,
          0., 0., 0., -1.5911138e-06, 0., 0., -1.56855799e-06, 0.,
          -5.48995331e-06, -4.54443107e-05, -5.02176554e-05,
          -1.02407384e-05, 0., 0., 0., 0., -1.5911138e-06, 0., 0., 0.,
          0., 0., 0., 1.8127399e-07, 0., 0., -1.56855799e-06, 0.,
          -5.48995331e-06, -4.54443107e-05, -5.02176554e-05,
          -1.02407384e-05, 0., 0., 0., 0., 1.8127399e-07, 0., 0., 0., 0.,
          0., 0., 4.35063084e-05, 4.11587826e-05, 4.11587826e-05,
          3.95902243e-05, 3.34784345e-05, -5.48995331e-06,
          -4.54443107e-05, -5.02176554e-05, -7.48369121e-06,
          4.17495794e-05, 4.11587826e-05, 4.11587826e-05, 4.11587826e-05,
          4.42940363e-05, 0., 0., 0., 0., 0., 0., 4.86265417e-05,
          5.02176554e-05, 5.02176554e-05, 4.86490972e-05, 4.17495794e-05,
          -5.48995331e-06, -4.54443107e-05, -5.02176554e-05,
          -6.30209934e-06, 5.02176554e-05, 5.02176554e-05,
          5.02176554e-05, 5.02176554e-05, 4.86265417e-05, 0., 0., 0., 0.,
          0., 0., 4.86265417e-05, 5.02176554e-05, 5.02176554e-05,
          4.86490972e-05, 4.17495794e-05, -5.48995331e-06,
          -4.54443107e-05, -5.00730057e-05, -6.58794352e-06,
          5.02176554e-05, 5.02176554e-05, 5.02176554e-05, 5.02176554e-05,
          4.86265417e-05, 0., 0., 0., 0., 0., 0., 4.86265417e-05,
          5.02176554e-05, 5.02176554e-05, 4.90673774e-05, 4.17495794e-05,
          -5.48995331e-06, -2.63509464e-05, -2.47598327e-05,
          -3.11987174e-06, 5.02176554e-05, 5.02176554e-05,
          5.02176554e-05, 5.02176554e-05, 4.86265417e-05, 0., 0., 0., 0.,
          0., 0., 4.86265417e-05, 5.02176554e-05, 5.02176554e-05,
          4.82308133e-05, 4.17495794e-05, -4.65338871e-06,
          -1.3332743e-05, -1.3332743e-05, -1.65588415e-06,
          5.02176554e-05, 4.93810876e-05, 5.02176554e-05, 5.02176554e-05,
          4.86265417e-05, 0., 0., 0., 0., 0., 0., 4.89158338e-05,
          5.02176554e-05, 5.02176554e-05, 4.48322717e-05, 4.17495794e-05,
          -8.36564254e-07, -8.52249832e-06, -8.31335728e-06,
          3.31121623e-06, 5.02176554e-05, 4.62439748e-05, 5.02176554e-05,
          5.02176554e-05, 4.86265417e-05, 0., 0., 0., 0., 0., 0.,
          3.89352099e-05, 5.02176554e-05, 5.02176554e-05, 3.97606018e-05,
          4.15404393e-05, 0., 0., 0., 3.93863957e-06, 5.01130817e-05,
          4.08585911e-05, 5.02176554e-05, 5.02176554e-05, 4.28406711e-05,
          0., 0., 0., 0., 0., 0., 1.7816792e-05, 4.34192589e-05,
          4.8481892e-05, 3.51491508e-05, 3.29290269e-05, -2.99591829e-06,
          -1.84033104e-06, -1.84033104e-06, 4.25048847e-06,
          3.86522624e-05, 3.51491508e-05, 4.8481892e-05, 4.34192589e-05,
          2.14329593e-05, 0., 0., 0. ]
      - [ 0., 0., 0., 2.33384744e-05, 2.33384744e-05, 2.33384744e-05,
          4.26059523e-05, 6.00993517e-05, -1.60965737e-05,
          -1.82745262e-05, -4.2012939e-06, 9.35984826e-06,
          6.61859012e-05, 2.33384744e-05, 2.33384744e-05, 2.33384744e-05,
          2.33384744e-05, 0., 0., 0., 0., 0., 0., 2.33384744e-05,
          2.33384744e-05, 2.69167194e-05, 8.4719155e-05, 5.44174254e-05,
          -1.75549612e-05, -2.28936551e-06, 0., 2.66437041e-06,
          8.031584e-05, 2.33384744e-05, 2.33384744e-05, 2.33384744e-05,
          2.33384744e-05, 0., 0., 0., 0., 0., 0., 2.33384744e-05,
          2.33384744e-05, 6.6552675e-05, 9.35271455e-05, 7.27734441e-05,
          -1.46693424e-07, 0., 0., 2.57284682e-06, 8.031584e-05,
          2.33384744e-05, 2.33384744e-05, 2.33384744e-05, 2.33384744e-05,
          0., 0., 0., 0., 0., 0., 2.33384744e-05, 3.8752456e-05,
          9.10498929e-05, 9.35271455e-05, 7.56808149e-05, 0., 0., 0.,
          4.40671238e-06, 8.1416154e-05, 2.33384744e-05, 2.33384744e-05,
          2.33384744e-05, 2.33384744e-05, 0., 0., 0., 0., 0., 0.,
          2.33384744e-05, 7.61864139e-05, 9.35271455e-05, 9.35271455e-05,
          5.72396748e-05, -2.0224119e-05, -3.86152078e-06, 0.,
          4.40671238e-06, 8.1416154e-05, 2.33384744e-05, 2.33384744e-05,
          2.33384744e-05, 2.33384744e-05, 0., 0., 0., 0., 0., 0.,
          2.80177192e-05, 8.96736456e-05, 9.35271455e-05, 9.35271455e-05,
          5.44174254e-05, -2.33384744e-05, -6.91942705e-06, 0.,
          4.40671238e-06, 8.1416154e-05, 2.33384744e-05, 2.33384744e-05,
          2.33384744e-05, 2.33384744e-05, 0., 0., 0., 0., 0., 0.,
          2.33384744e-05, 2.82929686e-05, 3.02197168e-05, 4.70099476e-05,
          5.30404977e-05, -2.33384744e-05, -7.1264094e-06, 0.,
          4.40671238e-06, 8.1416154e-05, 2.33384744e-05, 2.33384744e-05,
          2.33384744e-05, 2.33384744e-05, 0., 0., 0., 0., 0., 0.,
          2.15046093e-05, 1.8570423e-05, 1.8570423e-05, 1.8570423e-05,
          3.60712947e-05, -2.33384744e-05, -7.62293939e-06, 0.,
          -7.28111047e-07, 7.11465109e-05, 1.8570423e-05, 1.8570423e-05,
          1.8570423e-05, 2.07710618e-05, 0., 0., 0., 0., 0., 0.,
          -5.51509693e-05, -7.01886675e-05, -7.01886675e-05,
          -7.01886675e-05, -3.54494587e-05, -2.33384744e-05,
          -7.62293939e-06, 0., -2.92874961e-06, -1.21109861e-05,
          -7.01886675e-05, -7.01886675e-05, -7.01886675e-05,
          -6.06525682e-05, 0., 0., 0., 0., 0., 0., -7.01886675e-05,
          -7.01886675e-05, -7.01886675e-05, -7.01886675e-05,
          -3.54494587e-05, -2.33384744e-05, -7.62293939e-06, 0.,
          -2.92874961e-06, -1.21109861e-05, -7.01886675e-05,
          -7.01886675e-05, -7.01886675e-05, -7.01886675e-05, 0., 0., 0.,
          0., 0., 0., -7.01886675e-05, -7.01886675e-05, -7.01886675e-05,
          -7.01886675e-05, -3.54494587e-05, -2.33384744e-05,
          -7.62293939e-06, 0., -2.92874961e-06, -1.21109861e-05,
          -7.01886675e-05, -7.01886675e-05, -7.01886675e-05,
          -7.01886675e-05, 0., 0., 0., 0., 0., 0., -6.5420616e-05,
          -7.01886675e-05, -7.01886675e-05, -7.01886675e-05,
          -3.54494587e-05, -2.33384744e-05, -7.62293939e-06, 0.,
          -2.92874961e-06, -1.21109861e-05, -7.01886675e-05,
          -7.01886675e-05, -7.01886675e-05, -6.6887711e-05, 0., 0., 0.,
          0., 0., 0., 1.52694665e-05, 6.46691115e-06, 6.46691115e-06,
          6.46691115e-06, 3.5704521e-05, -2.33384744e-05,
          -7.62293939e-06, 0., 2.20607376e-06, 6.27107293e-05,
          6.46691115e-06, 6.46691115e-06, 6.46691115e-06, 1.67365579e-05,
          0., 0., 0., 0., 0., 0., 2.33384744e-05, 2.33384744e-05,
          2.33384744e-05, 2.33384744e-05, 4.23064375e-05,
          -2.33384744e-05, -7.62293939e-06, 0., 4.40671238e-06,
          8.1416154e-05, 2.33384744e-05, 2.33384744e-05, 2.33384744e-05,
          2.33384744e-05, 0., 0., 0., 0., 0., 0., 2.33384744e-05,
          2.33384744e-05, 2.33384744e-05, 2.36137239e-05, 4.4508437e-05,
          -2.33384744e-05, -7.62293939e-06, 0., 4.40671238e-06,
          8.36181571e-05, 2.36137239e-05, 2.33384744e-05, 2.33384744e-05,
          2.33384744e-05, 0., 0., 0., 0., 0., 0., 5.11386934e-05,
          7.31586624e-05, 7.12319161e-05, 7.81131603e-05, 5.44174254e-05,
          -2.33384744e-05, -7.62293939e-06, 0., 4.40671238e-06,
          9.35271455e-05, 7.81131603e-05, 7.31586624e-05, 7.1782415e-05,
          4.23307029e-05, 0., 0., 0., 0., 0., 0., 7.53606655e-05,
          9.35271455e-05, 9.35271455e-05, 9.35271455e-05, 5.44174254e-05,
          -2.33384744e-05, -7.62293939e-06, 0., 4.40671238e-06,
          9.35271455e-05, 9.35271455e-05, 9.35271455e-05, 9.35271455e-05,
          7.53606655e-05, 0., 0., 0., 0., 0., 0., 9.02241445e-05,
          9.35271455e-05, 9.35271455e-05, 9.35271455e-05, 5.44174254e-05,
          -2.33384744e-05, -7.62293939e-06, 0., 4.40671238e-06,
          9.35271455e-05, 9.35271455e-05, 9.35271455e-05, 9.35271455e-05,
          7.5085416e-05, 0., 0., 0., 0., 0., 0., 8.91231466e-05,
          9.35271455e-05, 9.35271455e-05, 9.35271455e-05, 5.44174254e-05,
          -2.33384744e-05, -6.62987941e-06, 0., 4.40671238e-06,
          9.35271455e-05, 9.35271455e-05, 9.35271455e-05, 9.35271455e-05,
          8.52696539e-05, 0., 0., 0., 0., 0., 0., 6.2699175e-05,
          8.22419024e-05, 7.78379108e-05, 7.78379108e-05, 4.5696881e-05,
          -3.5726749e-05, -2.32317852e-05, -1.68525421e-05,
          -8.63712376e-06, 7.67375896e-05, 7.78379108e-05,
          7.78379108e-05, 7.78379108e-05, 5.96714308e-05, 0., 0., 0. ]
      - [ 0., 0., 0., 4.69582992e-05, 4.69582992e-05, 4.69582992e-05,
          -1.35525272e-20, 6.3970765e-06, -7.94499738e-06,
          -2.58055138e-06, -4.03211152e-06, -4.72298098e-06,
          5.9830445e-06, -1.35525272e-20, 4.69582992e-05, 4.69582992e-05,
          4.69582992e-05, 0., 0., 0., 0., 0., 0., 4.69582992e-05,
          4.69582992e-05, 4.69582992e-05, 8.46968396e-06, 3.70129637e-05,
          0., 0., 0., 3.6830038e-06, 4.15938521e-05, 4.94796495e-06,
          4.69582992e-05, 4.69582992e-05, 4.69582992e-05, 0., 0., 0., 0.,
          0., 0., 4.69582992e-05, 4.69582992e-05, 4.69582992e-05,
          2.98780615e-05, 3.90398382e-05, -2.74388668e-07,
          -1.72292766e-05, -1.21657586e-05, 3.6830038e-06,
          4.69582992e-05, 2.58026685e-05, 4.69582992e-05, 4.69582992e-05,
          4.69582992e-05, 0., 0., 0., 0., 0., 0., 4.69582992e-05,
          4.69582992e-05, 4.69582992e-05, 4.20115575e-05, 3.90398382e-05,
          -9.40473001e-06, -4.67970131e-05, -4.51841697e-05,
          -1.76433389e-06, 4.69582992e-05, 3.52641473e-05,
          4.69582992e-05, 4.69582992e-05, 4.69582992e-05, 0., 0., 0., 0.,
          0., 0., 4.69582992e-05, 4.69582992e-05, 4.69582992e-05,
          4.63180586e-05, 3.90398382e-05, -1.45838012e-05,
          -4.69582992e-05, -4.69582992e-05, -6.96627058e-06,
          4.69582992e-05, 3.62510473e-05, 4.69582992e-05, 4.69582992e-05,
          4.69582992e-05, 0., 0., 0., 0., 0., 0., 4.69582992e-05,
          4.69582992e-05, 4.69582992e-05, 4.67067766e-05, 3.90398382e-05,
          -1.45838012e-05, -4.69582992e-05, -4.69582992e-05,
          -6.96627058e-06, 4.69582992e-05, 3.56794044e-05,
          4.69582992e-05, 4.69582992e-05, 4.69582992e-05, 0., 0., 0., 0.,
          0., 0., 4.69582992e-05, 4.69582992e-05, 4.69582992e-05,
          2.91573779e-05, 2.41816506e-05, -2.80002259e-05,
          -4.69582992e-05, -4.69582992e-05, -6.96627058e-06,
          4.69582992e-05, 3.56794044e-05, 4.69582992e-05, 4.69582992e-05,
          4.69582992e-05, 0., 0., 0., 0., 0., 0., 4.56692469e-05,
          4.45643454e-05, 4.45643454e-05, -2.3939524e-06,
          -1.28905131e-05, -4.69582992e-05, -4.69582992e-05,
          -4.69582992e-05, -7.17573539e-06, 4.30911423e-05,
          3.32854543e-05, 4.45643454e-05, 4.45643454e-05, 4.56692469e-05,
          0., 0., 0., 0., 0., 0., 4.7879048e-06, 0., 0., -4.69582992e-05,
          -4.69582992e-05, -4.69582992e-05, -4.69582992e-05,
          -3.56540913e-05, -2.52747355e-07, 0., -1.61100797e-05, 0., 0.,
          4.7879048e-06, 0., 0., 0., 0., 0., 0., 0., 0., 0.,
          -4.69582992e-05, -4.69582992e-05, -4.69582992e-05,
          -4.26289334e-05, -5.31504111e-06, 0., -1.60060054e-07,
          -3.50763257e-05, 0., 0., 0., 0., 0., 0., 0., 0., 0., 0., 0.,
          0., -4.69582992e-05, -4.69582992e-05, -4.22618541e-05,
          -7.50075287e-06, 0., -2.28657218e-08, -2.19065259e-05,
          -4.69582992e-05, 0., 0., 0., 0., 0., 0., 0., 0., 0.,
          1.65735173e-06, 0., 0., -4.69582992e-05, -4.19850185e-05,
          -7.34191735e-06, 0., -2.28657218e-08, -1.67731869e-05,
          -4.64744444e-05, -4.69582992e-05, 0., 0., 1.65735173e-06, 0.,
          0., 0., 0., 0., 0., 4.21703917e-05, 3.84873892e-05,
          3.84873892e-05, -6.88215414e-06, 2.22833969e-05, 0.,
          -2.28657218e-08, -1.85460904e-05, -4.35737711e-05,
          -7.91845832e-06, -8.47090905e-06, 3.84873892e-05,
          3.84873892e-05, 4.29069951e-05, 0., 0., 0., 0., 0., 0.,
          4.69582992e-05, 4.69582992e-05, 4.69582992e-05, 2.12470932e-05,
          3.90398382e-05, 0., -1.49304597e-05, -4.64744444e-05,
          -4.32752931e-05, -1.35525272e-20, -1.35525272e-20,
          4.69582992e-05, 4.69582992e-05, 4.69582992e-05, 0., 0., 0., 0.,
          0., 0., 4.69582992e-05, 4.69582992e-05, 4.69582992e-05,
          3.74992669e-05, 3.90398382e-05, -3.28694e-06, -4.43320132e-05,
          -4.69582992e-05, -4.32752931e-05, -1.35525272e-20,
          -1.35525272e-20, 4.69582992e-05, 4.69582992e-05,
          4.69582992e-05, 0., 0., 0., 0., 0., 0., 4.69582992e-05,
          4.69582992e-05, 4.69582992e-05, 4.51204687e-05, 3.90398382e-05,
          -1.39398871e-05, -4.69582992e-05, -4.69582992e-05,
          -4.32752931e-05, -1.35525272e-20, -1.35525272e-20,
          4.69582992e-05, 4.69582992e-05, 4.69582992e-05, 0., 0., 0., 0.,
          0., 0., 4.69582992e-05, 4.69582992e-05, 4.69582992e-05,
          4.62494609e-05, 3.90398382e-05, -1.49063699e-05,
          -4.69582992e-05, -4.69582992e-05, -4.32752931e-05,
          -1.35525272e-20, -1.35525272e-20, 4.69582992e-05,
          4.69582992e-05, 4.69582992e-05, 0., 0., 0., 0., 0., 0.,
          4.69582992e-05, 4.69582992e-05, 4.69582992e-05, 4.62494609e-05,
          3.90398382e-05, -6.7412866e-06, -2.03924901e-05,
          -2.03924901e-05, -1.67094877e-05, 2.65658073e-05,
          2.36675842e-05, 4.69582992e-05, 4.69582992e-05, 4.69582992e-05,
          0., 0., 0., 0., 0., 0., 4.69582992e-05, 4.69582992e-05,
          4.69582992e-05, 4.62494609e-05, 3.90398382e-05, 0., 0., 0.,
          3.6830038e-06, 4.69582992e-05, 4.4796674e-05, 4.69582992e-05,
          4.69582992e-05, 4.69582992e-05, 0., 0., 0., 0., 0., 0.,
          4.69582992e-05, 4.69582992e-05, 4.69582992e-05, 4.37424023e-05,
          4.10703906e-05, 9.25648578e-07, -7.31703096e-07,
          -7.31703096e-07, 7.55505516e-06, 4.62265962e-05,
          4.15542418e-05, 4.69582992e-05, 4.69582992e-05, 4.69582992e-05,
          0., 0., 0. ]
      - [ 0., 0., 0., 4.54925321e-05, 4.54925321e-05, 4.54925321e-05, 0.,
          9.81211451e-06, -3.92484617e-06, -3.56804179e-07,
          -3.56804179e-07, -2.49762934e-06, 9.81211451e-06, 0.,
          4.54925321e-05, 4.54925321e-05, 4.54925321e-05, 0., 0., 0., 0.,
          0., 0., 4.54925321e-05, 4.54925321e-05, 4.54925321e-05,
          9.09850678e-06, 3.657243e-05, 0., 0., 0., 2.67603127e-06,
          4.28165004e-05, 8.56330007e-06, 4.54925321e-05, 4.54925321e-05,
          4.54925321e-05, 0., 0., 0., 0., 0., 0., 4.54925321e-05,
          4.54925321e-05, 4.54925321e-05, 3.08635608e-05, 3.78212426e-05,
          0., -1.7305003e-05, -1.48073732e-05, 2.67603127e-06,
          4.49573272e-05, 3.15771686e-05, 4.54925321e-05, 4.54925321e-05,
          4.54925321e-05, 0., 0., 0., 0., 0., 0., 4.54925321e-05,
          4.54925321e-05, 4.54925321e-05, 4.3173306e-05, 3.78212426e-05,
          -1.03473212e-05, -4.54925321e-05, -4.513573e-05,
          -4.99525868e-06, 4.54925321e-05, 4.22812955e-05,
          4.54925321e-05, 4.54925321e-05, 4.54925321e-05, 0., 0., 0., 0.,
          0., 0., 4.54925321e-05, 4.54925321e-05, 4.54925321e-05,
          4.54925321e-05, 3.78212426e-05, -1.89106213e-05,
          -4.54925321e-05, -4.54925321e-05, -1.55209818e-05,
          4.54925321e-05, 4.54925321e-05, 4.54925321e-05, 4.54925321e-05,
          4.54925321e-05, 0., 0., 0., 0., 0., 0., 4.54925321e-05,
          4.54925321e-05, 4.54925321e-05, 4.54925321e-05, 3.78212426e-05,
          -1.90890241e-05, -4.54925321e-05, -4.54925321e-05,
          -1.69481991e-05, 4.54925321e-05, 4.54925321e-05,
          4.54925321e-05, 4.54925321e-05, 4.54925321e-05, 0., 0., 0., 0.,
          0., 0., 4.54925321e-05, 4.54925321e-05, 4.54925321e-05,
          2.78307252e-05, 2.19434569e-05, -3.12203665e-05,
          -4.54925321e-05, -4.54925321e-05, -1.5164178e-05,
          4.54925321e-05, 4.54925321e-05, 4.54925321e-05, 4.54925321e-05,
          4.54925321e-05, 0., 0., 0., 0., 0., 0., 4.46005215e-05,
          4.3173306e-05, 4.3173306e-05, -2.31922718e-06, -1.07041251e-05,
          -4.54925321e-05, -4.54925321e-05, -4.54925321e-05,
          -1.08825279e-05, 4.04972743e-05, 3.76428397e-05, 4.3173306e-05,
          4.3173306e-05, 4.42437195e-05, 0., 0., 0., 0., 0., 0.,
          7.31448563e-06, 0., 0., -4.54925321e-05, -4.54925321e-05,
          -3.81780483e-05, -2.58683031e-05, -1.90890241e-05,
          -1.7840209e-07, 0., -2.1586653e-05, 0., 0., 4.63845436e-06, 0.,
          0., 0., 0., 0., 0., 0., 0., 0., -4.54925321e-05,
          -4.54925321e-05, -2.06946424e-05, 0., 0., 0., -9.81211451e-06,
          -4.46005215e-05, 0., 0., 0., 0., 0., 0., 0., 0., 0., 0., 0.,
          0., -4.54925321e-05, -4.54925321e-05, -2.42626847e-05,
          -1.96242308e-06, 0., 0., 0., -2.89011386e-05, 0., 0., 0., 0.,
          0., 0., 0., 0., 0., 2.31922718e-06, 0., 0., -4.54925321e-05,
          -4.54925321e-05, -4.54925321e-05, -4.54925321e-05,
          -3.76428397e-05, -4.1032481e-06, 0., -9.09850678e-06, 0., 0.,
          1.60561876e-06, 0., 0., 0., 0., 0., 0., 4.15676877e-05,
          3.72860377e-05, 3.72860377e-05, -8.2064962e-06,
          -1.08825279e-05, -4.54925321e-05, -4.54925321e-05,
          -4.54925321e-05, -1.48073732e-05, 3.63940271e-05, 3.657243e-05,
          3.72860377e-05, 3.72860377e-05, 4.22812955e-05, 0., 0., 0., 0.,
          0., 0., 4.54925321e-05, 4.54925321e-05, 4.54925321e-05,
          1.65913953e-05, 9.99051736e-06, -3.72860377e-05,
          -4.54925321e-05, -4.54925321e-05, -1.76618069e-05,
          4.54925321e-05, 4.54925321e-05, 4.54925321e-05, 4.54925321e-05,
          4.54925321e-05, 0., 0., 0., 0., 0., 0., 4.54925321e-05,
          4.54925321e-05, 4.54925321e-05, 4.54925321e-05, 3.78212426e-05,
          -2.08730453e-05, -4.54925321e-05, -4.54925321e-05,
          -1.76618069e-05, 4.54925321e-05, 4.54925321e-05,
          4.54925321e-05, 4.54925321e-05, 4.54925321e-05, 0., 0., 0., 0.,
          0., 0., 4.54925321e-05, 4.54925321e-05, 4.54925321e-05,
          4.54925321e-05, 3.78212426e-05, -1.9624229e-05,
          -4.54925321e-05, -4.54925321e-05, -1.62345896e-05,
          4.54925321e-05, 4.54925321e-05, 4.54925321e-05, 4.54925321e-05,
          4.54925321e-05, 0., 0., 0., 0., 0., 0., 4.54925321e-05,
          4.54925321e-05, 4.54925321e-05, 4.46005215e-05, 3.78212426e-05,
          -1.37369607e-05, -4.54925321e-05, -4.54925321e-05,
          -8.56330007e-06, 4.54925321e-05, 4.37085109e-05,
          4.54925321e-05, 4.54925321e-05, 4.54925321e-05, 0., 0., 0., 0.,
          0., 0., 4.54925321e-05, 4.54925321e-05, 4.54925321e-05,
          3.30043877e-05, 3.78212426e-05, -5.35206254e-07,
          -2.17650559e-05, -1.89106213e-05, 3.56804185e-06,
          4.54925321e-05, 3.53236137e-05, 4.54925321e-05, 4.54925321e-05,
          4.54925321e-05, 0., 0., 0., 0., 0., 0., 4.54925321e-05,
          4.54925321e-05, 4.54925321e-05, 1.33801568e-05, 3.76428397e-05,
          0., 0., 0., 3.56804185e-06, 4.53141292e-05, 1.65913953e-05,
          4.54925321e-05, 4.54925321e-05, 4.54925321e-05, 0., 0., 0., 0.,
          0., 0., 4.54925321e-05, 4.54925321e-05, 4.54925321e-05, 0.,
          1.14177337e-05, -5.8872688e-06, 0., -7.13608358e-07,
          -2.85443343e-06, 1.39153626e-05, 0., 4.54925321e-05,
          4.54925321e-05, 4.54925321e-05, 0., 0., 0. ]
      - [ 0., 0., 0., 6.48913701e-05, 7.29321328e-05, 2.39261772e-05,
          2.39261772e-05, 2.10237922e-05, -5.02771218e-05,
          -5.63808644e-05, -2.91690394e-05, -1.57603597e-06,
          5.44018694e-05, 3.33474636e-05, 4.96075882e-05, 7.29321328e-05,
          6.74408802e-05, 0., 0., 0., 0., 0., 0., 7.31282489e-05,
          7.40107789e-05, 2.50048161e-05, 2.50048161e-05, 2.03610016e-05,
          -4.93875777e-05, -3.73722214e-05, -2.47106418e-05,
          -7.84464817e-07, 5.79270927e-05, 3.60725426e-05, 5.0686227e-05,
          7.40107789e-05, 7.29321328e-05, 0., 0., 0., 0., 0., 0.,
          7.29321328e-05, 7.40107789e-05, 2.50048161e-05, 2.50048161e-05,
          2.18121932e-05, -4.33301066e-05, -2.64551381e-05,
          -2.48086999e-05, 0., 5.79270927e-05, 3.57981371e-05,
          5.0686227e-05, 7.40107789e-05, 7.29321328e-05, 0., 0., 0., 0.,
          0., 0., 7.29321328e-05, 7.40107789e-05, 2.50048161e-05,
          2.50048161e-05, 2.18121932e-05, -2.66177558e-05,
          -2.48086999e-05, -2.48086999e-05, 0., 5.80278029e-05,
          3.54322619e-05, 5.0686227e-05, 7.40107789e-05, 7.29321328e-05,
          0., 0., 0., 0., 0., 0., 7.29321328e-05, 7.40107789e-05,
          2.50048161e-05, 2.50048161e-05, 2.19129051e-05,
          -1.16461824e-05, -2.48086999e-05, -2.9542136e-05, 0.,
          5.80278029e-05, 3.6346948e-05, 5.0686227e-05, 7.40107789e-05,
          7.29321328e-05, 0., 0., 0., 0., 0., 0., 7.29321328e-05,
          7.40107789e-05, 2.50048161e-05, 2.50048161e-05, 2.80923141e-05,
          -2.6921316e-06, -3.29689756e-05, -2.7331791e-05, 0.,
          5.79270927e-05, 3.6346948e-05, 5.0686227e-05, 7.40107789e-05,
          7.29321328e-05, 0., 0., 0., 0., 0., 0., 7.29321328e-05,
          7.40107789e-05, 2.50048161e-05, 2.50048161e-05, 4.06477702e-05,
          -4.02038222e-06, -4.25312537e-05, -3.64337429e-05,
          -3.43203351e-06, 5.79270927e-05, 3.48834474e-05, 5.0686227e-05,
          7.40107789e-05, 7.29321328e-05, 0., 0., 0., 0., 0., 0.,
          7.09004671e-05, 7.02376783e-05, 2.12317173e-05, 2.12317173e-05,
          4.34746762e-05, 0., -3.91437061e-05, -2.72798316e-05, 0.,
          5.07718469e-05, 3.25738511e-05, 4.69131264e-05, 7.02376783e-05,
          7.06102292e-05, 0., 0., 0., 0., 0., 0., 9.95041773e-06, 0.,
          -4.9005961e-05, -4.43649478e-05, -1.23530765e-06,
          -3.02134231e-06, -3.8111928e-05, -1.47283945e-05, 0.,
          -1.28910606e-05, -3.77552933e-05, -2.33245501e-05, 0.,
          3.27493603e-06, 0., 0., 0., 0., 0., 0., -1.07863912e-06, 0.,
          -4.9005961e-05, -2.8614455e-05, 0., -9.66829612e-06,
          -4.52557397e-05, -1.47283945e-05, 0., -1.28910606e-05,
          -3.95846728e-05, -2.33245501e-05, 0., -1.07863912e-06, 0., 0.,
          0., 0., 0., 0., -1.07863912e-06, 0., -4.9005961e-05,
          -1.24898015e-05, 0., -2.22820781e-05, -4.9005961e-05,
          -1.47283945e-05, 0., -1.27903495e-05, -3.77552933e-05,
          -2.33245501e-05, 0., -1.07863912e-06, 0., 0., 0., 0., 0., 0.,
          -1.7181552e-06, 0., -4.4979417e-05, -1.20757988e-06,
          -1.30924843e-06, -3.46443994e-05, -4.9005961e-05,
          -1.47283945e-05, 0., -1.27903495e-05, -3.83041079e-05,
          -2.33245501e-05, 0., -4.98162422e-07, 0., 0., 0., 0., 0., 0.,
          4.38954703e-05, 3.94792623e-05, 9.48990328e-06, 3.94792623e-05,
          2.7447828e-05, -6.43325038e-05, -7.01865065e-05,
          -3.16924452e-05, 2.32190678e-06, 4.63175602e-05,
          2.14410156e-05, 3.73352632e-05, 6.06598114e-05, 6.48054629e-05,
          0., 0., 0., 0., 0., 0., 4.9005961e-05, 4.9005961e-05,
          3.44085493e-05, 4.9005961e-05, 3.09552197e-05, -7.20899334e-05,
          -7.27117294e-05, -3.80207894e-05, -1.96116204e-07,
          5.94377634e-05, 3.57066674e-05, 5.16009131e-05, 7.40107789e-05,
          7.29321328e-05, 0., 0., 0., 0., 0., 0., 4.9005961e-05,
          4.9005961e-05, 4.53443354e-05, 4.9005961e-05, 4.45040896e-05,
          -2.86304257e-05, -2.82183373e-05, -2.47106418e-05,
          -7.84464817e-07, 7.02138859e-05, 6.84808911e-05,
          7.30960892e-05, 7.40107789e-05, 7.29321328e-05, 0., 0., 0., 0.,
          0., 0., 4.9005961e-05, 4.9005961e-05, 4.61324998e-05,
          4.9005961e-05, 4.581334e-05, -2.50048161e-05, -2.50048161e-05,
          -2.48086999e-05, 0., 7.08181542e-05, 7.22986806e-05,
          7.39193056e-05, 7.40107789e-05, 7.29321328e-05, 0., 0., 0., 0.,
          0., 0., 4.9005961e-05, 4.9005961e-05, 8.40876055e-06,
          1.12092375e-05, 8.01661554e-06, -6.28015405e-05,
          -6.20965584e-05, -3.46975321e-05, 0., 6.175413e-05,
          4.28995627e-05, 5.61743545e-05, 7.40107789e-05, 7.29321328e-05,
          0., 0., 0., 0., 0., 0., 4.9005961e-05, 4.9005961e-05,
          -6.09863722e-20, -6.09863722e-20, -3.19262176e-06,
          -7.40107789e-05, -7.40107789e-05, -3.95370953e-05, 0.,
          5.80278029e-05, 3.54322619e-05, 5.0686227e-05, 7.40107789e-05,
          7.29321328e-05, 0., 0., 0., 0., 0., 0., 4.9005961e-05,
          4.9005961e-05, -6.09863722e-20, -6.09863722e-20,
          -4.64381355e-06, -7.40107789e-05, -7.40107789e-05,
          -3.95370953e-05, 0., 5.80278029e-05, 3.47919777e-05,
          5.0686227e-05, 7.40107789e-05, 7.29321328e-05, 0., 0., 0., 0.,
          0., 0., 4.9005961e-05, 4.9005961e-05, -6.09863722e-20,
          -6.09863722e-20, -5.80476672e-06, -7.02376783e-05,
          -7.40107789e-05, -4.42326018e-05, -3.20179174e-06,
          5.13600025e-05, 2.89282616e-05, 4.50969128e-05, 6.99903903e-05,
          6.67544737e-05, 0., 0., 0. ]
      - [ 0., 0., 0., 3.94700255e-05, 5.26584372e-05, 4.99179878e-05,
          3.98756783e-05, 4.30934597e-05, -7.18458432e-06,
          -1.11633071e-05, -1.11633071e-05, 2.25951931e-06,
          4.88987753e-05, 4.37980525e-05, 4.99179878e-05, 4.99179878e-05,
          4.04976927e-05, 0., 0., 0., 0., 0., 0., 5.48850512e-05,
          5.96808386e-05, 5.96808386e-05, 5.10136779e-05, 4.96170105e-05,
          0., 0., 0., 4.68085e-06, 5.96808386e-05, 5.55572151e-05,
          5.96808386e-05, 5.96808386e-05, 5.8139336e-05, 0., 0., 0., 0.,
          0., 0., 5.77967803e-05, 5.96808386e-05, 5.96808386e-05,
          5.10136779e-05, 4.96170105e-05, -7.49122364e-08,
          -4.9328778e-06, -5.47528361e-06, -7.94433788e-07,
          5.42055532e-05, 5.0148341e-05, 5.96808386e-05, 5.96808386e-05,
          5.77967803e-05, 0., 0., 0., 0., 0., 0., 5.77967803e-05,
          5.96808386e-05, 5.96808386e-05, 5.20638678e-05, 4.96170105e-05,
          -5.15072486e-07, -1.54521949e-05, -1.60049276e-05,
          -1.13240776e-05, 4.3675911e-05, 4.3675911e-05, 5.96808386e-05,
          5.96808386e-05, 5.77967803e-05, 0., 0., 0., 0., 0., 0.,
          5.77967803e-05, 5.96808386e-05, 5.96808386e-05, 5.31907936e-05,
          4.96170105e-05, -9.39441009e-07, -2.61103341e-05,
          -2.33698847e-05, -1.13240776e-05, 4.3675911e-05, 4.3675911e-05,
          5.96808386e-05, 5.96808386e-05, 5.77967803e-05, 0., 0., 0., 0.,
          0., 0., 5.77967803e-05, 5.96808386e-05, 5.96808386e-05,
          5.43412061e-05, 4.96170105e-05, -7.67076108e-06,
          -5.95095589e-05, -5.76255006e-05, -1.62911419e-05,
          4.3675911e-05, 4.3675911e-05, 5.96808386e-05, 5.96808386e-05,
          5.65978335e-05, 0., 0., 0., 0., 0., 0., 5.77967803e-05,
          5.96808386e-05, 5.96808386e-05, 5.54466678e-05, 4.96170105e-05,
          -1.25996157e-05, -5.76938364e-05, -5.34052051e-05,
          -4.62602729e-05, 1.39974982e-05, 1.21607436e-05,
          2.81656721e-05, 2.81656721e-05, 2.11432707e-05, 0., 0., 0., 0.,
          0., 0., 5.6158482e-05, 5.66382841e-05, 5.66382841e-05,
          5.26476833e-05, 4.32978632e-05, -1.88732247e-06,
          -3.45076951e-05, -3.69960653e-05, -3.44215987e-05,
          1.64443354e-05, 5.91179423e-06, 1.82719959e-05, 1.2962375e-05,
          1.43666302e-05, 0., 0., 0., 0., 0., 0., 4.20104607e-06, 0., 0.,
          -2.84120347e-06, 0., 0., -4.88954868e-07, -8.8234583e-07, 0.,
          0., -5.52792562e-06, -5.13834266e-07, -1.40448028e-05,
          -3.2966298e-05, 0., 0., 0., 0., 0., 0., -1.88405886e-06, 0.,
          0., -2.67538394e-06, 0., -6.8656135e-07, -1.394018e-05,
          -1.55627422e-05, -3.20928598e-06, 0., -2.04875232e-06, 0., 0.,
          -1.50724709e-05, 0., 0., 0., 0., 0., 0., -1.88405886e-06, 0.,
          0., -5.28800319e-06, -2.59581498e-06, -6.45704085e-06,
          -1.60049276e-05, -1.60049276e-05, -6.92635695e-06, 0., 0., 0.,
          0., -2.22661492e-06, 0., 0., 0., 0., 0., 0., -2.51812571e-06,
          0., 0., -1.60049276e-05, -1.60049276e-05, -1.60049276e-05,
          -1.60049276e-05, -1.60049276e-05, -7.1371237e-06, 0., 0., 0.,
          0., 2.22323649e-07, 0., 0., 0., 0., 0., 0., 1.67709459e-05,
          1.97976096e-05, 1.97976096e-05, 3.79268158e-06,
          -5.33497587e-06, -4.51222004e-05, -4.51222004e-05,
          -3.79285229e-05, -3.86052852e-06, 4.96170105e-05,
          4.89148842e-05, 4.89148842e-05, 4.89148842e-05, 5.26478434e-05,
          0., 0., 0., 0., 0., 0., 1.60049276e-05, 1.60049276e-05,
          1.60049276e-05, 6.58196404e-06, -2.74185118e-06,
          -5.56469058e-05, -5.96808386e-05, -5.89957272e-05,
          -2.45627371e-06, 5.96808386e-05, 5.96808386e-05,
          5.96808386e-05, 5.96808386e-05, 5.77967803e-05, 0., 0., 0., 0.,
          0., 0., 2.86795057e-05, 4.34094218e-05, 3.46742381e-05,
          3.44719738e-05, 3.07764203e-05, -3.95412135e-05,
          -5.96808386e-05, -5.95095589e-05, -8.45100658e-06,
          5.96808386e-05, 5.96808386e-05, 5.96808386e-05, 5.96808386e-05,
          5.77967803e-05, 0., 0., 0., 0., 0., 0., 5.18020461e-05,
          5.96808386e-05, 5.96808386e-05, 5.94486119e-05, 4.96170105e-05,
          -8.19732486e-06, -3.77572433e-05, -3.12486773e-05,
          -2.45627371e-06, 5.96808386e-05, 5.96808386e-05,
          5.96808386e-05, 5.96808386e-05, 5.77967803e-05, 0., 0., 0., 0.,
          0., 0., 5.77967803e-05, 5.96808386e-05, 5.96808386e-05,
          5.86298374e-05, 4.96170105e-05, -4.63221613e-06,
          -1.60049276e-05, -1.60049276e-05, -5.46210742e-07,
          5.96808386e-05, 5.88321018e-05, 5.96808386e-05, 5.96808386e-05,
          5.77967803e-05, 0., 0., 0., 0., 0., 0., 5.79680564e-05,
          5.96808386e-05, 5.96808386e-05, 5.55993283e-05, 4.96170105e-05,
          -2.60370882e-07, -7.12781048e-06, -6.87209604e-06,
          4.45044407e-06, 5.96808386e-05, 5.59580985e-05, 5.96808386e-05,
          5.96808386e-05, 5.79680564e-05, 0., 0., 0., 0., 0., 0.,
          4.88903206e-05, 5.96808386e-05, 5.96808386e-05, 4.81799652e-05,
          4.95542445e-05, 0., 0., 0., 4.68085e-06, 5.96255632e-05,
          4.87776451e-05, 5.96808386e-05, 5.96808386e-05, 4.88903206e-05,
          0., 0., 0., 0., 0., 0., 2.54252227e-05, 5.12882107e-05,
          5.77967803e-05, 4.17918527e-05, 4.07854168e-05,
          -2.59924082e-06, -1.89155014e-06, -2.0498785e-06,
          5.62767036e-06, 4.65319827e-05, 4.17918527e-05, 5.77967803e-05,
          5.12882107e-05, 2.11432707e-05, 0., 0., 0. ]
      - [ 0., 0., 0., 1.48656009e-05, 3.77302313e-05, 5.36861226e-05,
          3.99719793e-05, 3.72993891e-05, -2.10000508e-06,
          -2.87723492e-06, -3.08977837e-06, 6.1800929e-06,
          4.18848722e-05, 3.99719793e-05, 5.17121989e-05, 3.78947261e-05,
          1.48656009e-05, 0., 0., 0., 0., 0., 0., 3.97041549e-05,
          5.5495555e-05, 5.5495555e-05, 4.41776101e-05, 4.51810338e-05,
          0., 0., 0., 4.35259244e-06, 5.40608853e-05, 4.30617583e-05,
          5.5495555e-05, 5.5495555e-05, 3.74012416e-05, 0., 0., 0., 0.,
          0., 0., 5.1218718e-05, 5.5495555e-05, 5.5495555e-05,
          5.11915459e-05, 4.61374802e-05, 0., -3.9851916e-06,
          -3.50696837e-06, 4.35259244e-06, 5.5495555e-05, 4.92255203e-05,
          5.5495555e-05, 5.5495555e-05, 5.33571365e-05, 0., 0., 0., 0.,
          0., 0., 5.36861226e-05, 5.5495555e-05, 5.5495555e-05,
          5.42202943e-05, 4.61374802e-05, -2.49738673e-06,
          -1.34433794e-05, -1.31776997e-05, 2.81165194e-06,
          5.5495555e-05, 5.24668103e-05, 5.5495555e-05, 5.5495555e-05,
          5.36861226e-05, 0., 0., 0., 0., 0., 0., 5.36861226e-05,
          5.5495555e-05, 5.5495555e-05, 5.50173318e-05, 4.61374802e-05,
          -4.51655023e-06, -2.90120624e-05, -2.50642133e-05,
          5.7994464e-07, 5.5495555e-05, 5.33701204e-05, 5.5495555e-05,
          5.5495555e-05, 5.36861226e-05, 0., 0., 0., 0., 0., 0.,
          5.36861226e-05, 5.5495555e-05, 5.5495555e-05, 5.5495555e-05,
          4.61374802e-05, -1.10963001e-05, -5.53310601e-05,
          -5.48375792e-05, -7.8041503e-06, 5.5495555e-05, 5.33701204e-05,
          5.5495555e-05, 5.5495555e-05, 5.02317562e-05, 0., 0., 0., 0.,
          0., 0., 5.36861226e-05, 5.5495555e-05, 5.5495555e-05,
          5.47516538e-05, 4.61374802e-05, -1.33992125e-05,
          -5.5495555e-05, -5.5495555e-05, -4.42098681e-05,
          1.61492953e-05, 1.38011437e-05, 1.99649076e-05, 1.99649076e-05,
          1.56880687e-05, 0., 0., 0., 0., 0., 0., 5.21627153e-05,
          5.2666368e-05, 5.2666368e-05, 5.16036525e-05, 4.02614824e-05,
          -4.84553766e-06, -4.14655369e-05, -4.27741252e-05,
          -4.15491886e-05, 6.45085856e-06, 8.19189518e-06,
          1.97676218e-05, 1.1049453e-05, 1.20262439e-05, 0., 0., 0., 0.,
          0., 0., 3.84893929e-06, 0., 0., -1.06271773e-06, 0.,
          -2.44425064e-06, -1.80662016e-06, 0., -3.71951188e-07,
          -5.5261321e-06, -1.33371077e-05, 0., -9.37614277e-06,
          -2.97077841e-05, 0., 0., 0., 0., 0., 0., -1.80943118e-06, 0.,
          0., -1.06271773e-06, 0., 0., 0., 0., 0., 0., -7.6515671e-06,
          0., 0., -1.33239928e-05, 0., 0., 0., 0., 0., 0.,
          -1.80943118e-06, 0., 0., -1.06271773e-06, 0., -1.59407662e-07,
          -6.64198569e-06, -6.4825781e-06, -1.59407662e-07, 0.,
          -2.92247364e-06, 0., 0., -1.64493736e-06, 0., 0., 0., 0., 0.,
          0., 1.4923549e-07, 0., 0., -1.06271773e-06, 0.,
          -3.93205573e-06, -1.35496512e-05, -1.35496512e-05,
          -3.02874537e-06, 0., -6.90766512e-07, 0., 0., 1.4923549e-07,
          0., 0., 0., 0., 0., 0., 4.80277522e-05, 4.54845904e-05,
          4.54845904e-05, 4.44218749e-05, 3.69970367e-05,
          -6.98395615e-06, -4.18425734e-05, -3.74012416e-05,
          -4.07017808e-07, 4.61374802e-05, 4.54845904e-05,
          4.54845904e-05, 4.54845904e-05, 4.88982732e-05, 0., 0., 0., 0.,
          0., 0., 5.36861226e-05, 5.5495555e-05, 5.5495555e-05,
          5.44328359e-05, 4.61374802e-05, -1.35637056e-05,
          -5.5495555e-05, -5.50020741e-05, -2.52696225e-07,
          5.5495555e-05, 5.5495555e-05, 5.5495555e-05, 5.5495555e-05,
          5.36861226e-05, 0., 0., 0., 0., 0., 0., 5.36861226e-05,
          5.5495555e-05, 5.5495555e-05, 5.44328359e-05, 4.61374802e-05,
          -1.30702247e-05, -5.5495555e-05, -5.53310601e-05,
          -6.42489204e-06, 5.5495555e-05, 5.5495555e-05, 5.5495555e-05,
          5.5495555e-05, 5.36861226e-05, 0., 0., 0., 0., 0., 0.,
          5.36861226e-05, 5.5495555e-05, 5.5495555e-05, 5.44328359e-05,
          4.61374802e-05, -4.51655023e-06, -3.26309237e-05,
          -2.6380163e-05, -4.55011184e-09, 5.5495555e-05, 5.5495555e-05,
          5.5495555e-05, 5.5495555e-05, 5.36861226e-05, 0., 0., 0., 0.,
          0., 0., 5.36861226e-05, 5.5495555e-05, 5.5495555e-05,
          5.43796996e-05, 4.61374802e-05, -3.82578355e-06,
          -1.35496512e-05, -1.35496512e-05, 1.37698294e-06,
          5.5495555e-05, 5.44859722e-05, 5.5495555e-05, 5.5495555e-05,
          5.36861226e-05, 0., 0., 0., 0., 0., 0., 5.40151123e-05,
          5.5495555e-05, 5.5495555e-05, 5.23605377e-05, 4.61374802e-05,
          -5.3135885e-08, -6.27003465e-06, -6.16376292e-06,
          4.29945658e-06, 5.5495555e-05, 5.22011287e-05, 5.5495555e-05,
          5.5495555e-05, 5.40151123e-05, 0., 0., 0., 0., 0., 0.,
          4.48034625e-05, 5.5495555e-05, 5.5495555e-05, 4.65155899e-05,
          4.61374802e-05, 0., 0., 0., 4.35259244e-06, 5.53892824e-05,
          4.56654161e-05, 5.5495555e-05, 5.5495555e-05, 4.48034625e-05,
          0., 0., 0., 0., 0., 0., 2.2596807e-05, 4.72708671e-05,
          5.35216313e-05, 3.99719793e-05, 3.84480372e-05,
          -2.30010141e-06, -1.97392478e-06, -2.02706087e-06,
          5.48142953e-06, 4.4329121e-05, 3.99719793e-05, 5.35216313e-05,
          4.72708671e-05, 1.831997e-05, 0., 0., 0. ]
      - [ 0., 0., 0., 6.11083378e-05, 7.0124137e-05, 6.80750964e-05,
          6.37607445e-05, 5.824248e-05, -7.08790776e-06, -1.48074641e-05,
          -1.51310405e-05, 3.51274275e-06, 6.4748383e-05, 6.37607445e-05,
          6.80750964e-05, 6.80750964e-05, 5.72151548e-05, 0., 0., 0., 0.,
          0., 0., 7.75007065e-05, 7.97546527e-05, 7.97546527e-05,
          7.73817592e-05, 6.63058308e-05, 0., 0., 0., 5.80053302e-06,
          7.94818116e-05, 7.97546527e-05, 7.97546527e-05, 7.97546527e-05,
          7.79105103e-05, 0., 0., 0., 0., 0., 0., 7.75007065e-05,
          7.97546527e-05, 7.97546527e-05, 6.12029398e-05, 5.03427254e-05,
          -1.71495503e-05, -1.59631036e-05, -1.628668e-05,
          -6.70995632e-07, 7.94818116e-05, 7.46852893e-05,
          7.97546527e-05, 7.97546527e-05, 7.75007065e-05, 0., 0., 0., 0.,
          0., 0., 7.77056121e-05, 7.97546527e-05, 7.97546527e-05,
          5.22506562e-05, 3.88018343e-05, -2.75039965e-05,
          -2.75039965e-05, -2.64254086e-05, 2.91164383e-06,
          7.94310763e-05, 5.81828936e-05, 7.97546527e-05, 7.97546527e-05,
          7.75007065e-05, 0., 0., 0., 0., 0., 0., 5.12729239e-05,
          6.17230544e-05, 6.17230544e-05, 3.42190579e-05, 2.07702342e-05,
          -4.55355948e-05, -4.55355948e-05, -2.63051043e-05,
          6.25526718e-06, 7.23123958e-05, 5.22506562e-05, 7.97546527e-05,
          7.97546527e-05, 7.79105103e-05, 0., 0., 0., 0., 0., 0.,
          2.75039965e-05, 2.75039965e-05, 2.75039965e-05,
          -3.38813179e-20, -1.34488237e-05, -7.97546527e-05,
          -7.86760647e-05, -4.28901985e-05, 6.25526718e-06,
          5.93693403e-05, 5.22506562e-05, 7.97546527e-05, 7.97546527e-05,
          6.54113392e-05, 0., 0., 0., 0., 0., 0., 2.75039965e-05,
          2.75039965e-05, 2.75039965e-05, -3.38813179e-20,
          -1.31759834e-05, -7.97546527e-05, -7.06945139e-05,
          -1.90561223e-05, 3.99023202e-06, 5.28978126e-05,
          5.22506562e-05, 7.97546527e-05, 7.97546527e-05, 4.24620266e-05,
          0., 0., 0., 0., 0., 0., 2.54965471e-05, 2.34380732e-05,
          2.34380732e-05, -4.06592335e-06, -2.09839654e-05,
          -7.97546527e-05, -4.80995877e-05, 0., -1.08202648e-05,
          4.50459993e-05, 4.81847346e-05, 7.56887312e-05, 6.48287896e-05,
          2.5724461e-05, 0., 0., 0., 0., 0., 0., -4.27546074e-05,
          -5.22506562e-05, -5.22506562e-05, -7.97546527e-05,
          -7.97546527e-05, -7.87839235e-05, -1.71690008e-05, 0.,
          -2.22189137e-05, -2.75039965e-05, -2.75039965e-05, 0.,
          -4.18005257e-05, -4.41188095e-05, 0., 0., 0., 0., 0., 0.,
          -5.22506562e-05, -5.22506562e-05, -5.22506562e-05,
          -7.97546527e-05, -7.97546527e-05, -6.16357356e-05,
          -4.09809076e-07, -2.26503494e-06, -2.73961377e-05,
          -2.75039965e-05, -2.75039965e-05, -1.29089858e-05,
          -5.18408488e-05, -5.22506562e-05, 0., 0., 0., 0., 0., 0.,
          -5.22506562e-05, -5.22506562e-05, -5.22506562e-05,
          -7.97546527e-05, -7.97546527e-05, -3.04140085e-05, 0.,
          -7.55011661e-06, -2.75039965e-05, -2.75039965e-05,
          -2.93481371e-05, -4.67182363e-05, -5.22506562e-05,
          -5.22506562e-05, 0., 0., 0., 0., 0., 0., -4.90720013e-05,
          -5.22506562e-05, -5.22506562e-05, -7.97546527e-05,
          -6.72554743e-05, -7.52849064e-06, 0., -1.20801869e-05,
          -2.75039965e-05, -2.75039965e-05, -4.98385925e-05,
          -5.22506562e-05, -5.22506562e-05, -4.94357882e-05, 0., 0., 0.,
          0., 0., 0., 1.97359368e-05, 1.31168817e-05, 1.31168817e-05,
          -1.41822093e-05, 1.69347622e-05, -8.62870479e-07, 0.,
          -1.60709624e-05, -2.31253089e-05, 3.5205594e-05,
          -7.62526406e-06, 1.31168817e-05, 1.31168817e-05,
          2.09869904e-05, 0., 0., 0., 0., 0., 0., 2.75039965e-05,
          2.75039965e-05, 2.75039965e-05, 1.68021725e-05, 4.12825866e-05,
          0., 0., -1.93067262e-05, -2.12487284e-05, 3.2989632e-05,
          -3.38813179e-20, 2.75039965e-05, 2.75039965e-05,
          2.75039965e-05, 0., 0., 0., 0., 0., 0., 2.75039965e-05,
          2.75039965e-05, 2.8323615e-05, 4.4259381e-05, 4.40869153e-05,
          0., 0., -2.0493173e-05, -2.37075838e-05, 4.09809081e-06,
          -3.38813179e-20, 2.75039965e-05, 2.75039965e-05,
          2.75039965e-05, 0., 0., 0., 0., 0., 0., 2.75039965e-05,
          2.75039965e-05, 4.59454059e-05, 5.22506562e-05, 4.6891244e-05,
          0., 0., -2.25424901e-05, -4.54274632e-05, -3.38813179e-20,
          -3.38813179e-20, 2.75039965e-05, 2.75039965e-05,
          2.75039965e-05, 0., 0., 0., 0., 0., 0., 2.75039965e-05,
          2.77089002e-05, 7.09437591e-05, 5.22506562e-05, 5.09898782e-05,
          0., 0., -3.34997494e-05, -7.26797662e-05, -3.38813179e-20,
          -3.38813179e-20, 2.75039965e-05, 2.75039965e-05,
          2.75039965e-05, 0., 0., 0., 0., 0., 0., 2.75039965e-05,
          4.47159764e-05, 7.97546527e-05, 5.22506562e-05, 5.20684662e-05,
          0., 0., -5.45727489e-05, -7.34993882e-05, -3.38813179e-20,
          -3.38813179e-20, 2.75039965e-05, 2.75039965e-05,
          2.75039965e-05, 0., 0., 0., 0., 0., 0., 2.95530408e-05,
          7.40173273e-05, 7.97546527e-05, 5.22506562e-05, 5.31470541e-05,
          0., -7.99127702e-06, -7.73925713e-05, -7.34993882e-05,
          -3.38813179e-20, -3.38813179e-20, 2.75039965e-05,
          2.75039965e-05, 2.75039965e-05, 0., 0., 0., 0., 0., 0.,
          3.01677555e-05, 6.78701908e-05, 6.86898056e-05, 3.831715e-05,
          4.23273268e-05, -1.34052998e-05, -4.20167889e-05,
          -7.79210532e-05, -6.69535584e-05, -2.72840481e-07,
          -3.38813179e-20, 2.75039965e-05, 2.75039965e-05,
          2.75039965e-05, 0., 0., 0. ]
      - [ 0., 0., 0., 1.43632979e-05, 3.24229004e-05, 4.96973043e-05,
          3.81607279e-05, 3.56613673e-05, -2.05870765e-06,
          -3.50957043e-06, -2.95094583e-06, 4.93387051e-06,
          3.93287592e-05, 3.81607279e-05, 4.96973043e-05, 3.4621462e-05,
          1.68759379e-05, 0., 0., 0., 0., 0., 0., 3.6191861e-05,
          5.29951431e-05, 5.29951431e-05, 4.23304882e-05, 4.36524351e-05,
          0., 0., 0., 4.15648174e-06, 5.12684855e-05, 4.13655944e-05,
          5.29951431e-05, 5.29951431e-05, 3.96467403e-05, 0., 0., 0., 0.,
          0., 0., 4.90691418e-05, 5.29951431e-05, 5.29951431e-05,
          4.80183044e-05, 4.40587064e-05, -2.03136267e-07,
          -5.8909518e-06, -5.12919087e-06, 4.15648174e-06,
          5.29951431e-05, 4.74596818e-05, 5.29951431e-05, 5.29951431e-05,
          5.09536221e-05, 0., 0., 0., 0., 0., 0., 5.12677034e-05,
          5.29951431e-05, 5.29951431e-05, 5.10653481e-05, 4.40587064e-05,
          -5.53546352e-06, -1.29499376e-05, -1.29499376e-05,
          -6.17220451e-07, 5.29951431e-05, 4.99480993e-05,
          5.29951431e-05, 5.29951431e-05, 5.12677034e-05, 0., 0., 0., 0.,
          0., 0., 5.12677034e-05, 5.29951431e-05, 5.29951431e-05,
          5.1471623e-05, 4.40587064e-05, -8.37937114e-06,
          -2.39427391e-05, -2.55131399e-05, -2.69936731e-06,
          5.29951431e-05, 5.12684855e-05, 5.29951431e-05, 5.29951431e-05,
          5.12677034e-05, 0., 0., 0., 0., 0., 0., 5.12677034e-05,
          5.29951431e-05, 5.29951431e-05, 5.1471623e-05, 4.40587064e-05,
          -8.37937114e-06, -4.73417022e-05, -5.03254632e-05,
          -4.47290358e-06, 5.29951431e-05, 5.05067255e-05,
          5.29951431e-05, 5.29951431e-05, 5.12677034e-05, 0., 0., 0., 0.,
          0., 0., 5.12677034e-05, 5.29951431e-05, 5.29951431e-05,
          5.1471623e-05, 4.40587064e-05, -8.69345149e-06,
          -4.84409829e-05, -5.29951431e-05, -7.32228136e-06,
          5.29951431e-05, 5.1471623e-05, 5.29951431e-05, 5.29951431e-05,
          5.12677034e-05, 0., 0., 0., 0., 0., 0., 4.98129339e-05,
          5.02934308e-05, 5.02934308e-05, 4.82112846e-05, 3.84474588e-05,
          -7.61761021e-06, -3.21088191e-05, -3.44644213e-05,
          -4.21429559e-06, 4.86308381e-05, 4.74495246e-05,
          5.02934308e-05, 5.02934308e-05, 4.98129339e-05, 0., 0., 0., 0.,
          0., 0., 3.99006603e-06, 0., 0., -5.53546352e-06, 0.,
          -2.64077153e-06, -1.19850401e-05, -1.15279836e-05,
          -2.18371497e-06, 0., -6.65271273e-06, 0., 0., 3.99006603e-06,
          0., 0., 0., 0., 0., 0., -1.50758424e-05, 0., 0.,
          -1.25944489e-05, -2.64077153e-06, 0., 0., 0., 0.,
          -2.84390785e-06, -1.25944489e-05, 0., 0., -1.50758424e-05, 0.,
          0., 0., 0., 0., 0., -3.23502463e-05, 0., 0., -9.24269989e-06,
          -3.047044e-07, 0., -9.64897254e-07, -5.5862472e-07, 0.,
          -4.06272534e-07, -9.902893e-06, 0., -7.85200143e-07,
          -3.53340074e-05, 0., 0., 0., 0., 0., 0., -5.35342451e-06, 0.,
          0., -2.84390785e-06, 0., -3.91037338e-06, -1.26452333e-05,
          -1.21881767e-05, -2.84390785e-06, 0., -3.60566878e-06, 0., 0.,
          -5.35342451e-06, 0., 0., 0., 0., 0., 0., 4.58642789e-05,
          4.34352369e-05, 4.34352369e-05, 4.28766107e-05, 3.53300966e-05,
          -8.17623459e-06, -3.6191861e-05, -3.65059423e-05,
          -4.91120909e-06, 4.40587064e-05, 4.17085794e-05,
          4.34352369e-05, 4.34352369e-05, 4.66955753e-05, 0., 0., 0., 0.,
          0., 0., 5.12677034e-05, 5.29951431e-05, 5.29951431e-05,
          5.29951431e-05, 4.40587064e-05, -8.58250769e-06,
          -4.78128241e-05, -5.29951431e-05, -7.67776964e-06,
          5.29951431e-05, 5.18778943e-05, 5.29951431e-05, 5.29951431e-05,
          5.12677034e-05, 0., 0., 0., 0., 0., 0., 5.12677034e-05,
          5.29951431e-05, 5.29951431e-05, 5.29951431e-05, 4.40587064e-05,
          -9.902893e-06, -4.78128241e-05, -5.28381024e-05,
          -7.36368975e-06, 5.29951431e-05, 5.29951431e-05,
          5.29951431e-05, 5.29951431e-05, 5.12677034e-05, 0., 0., 0., 0.,
          0., 0., 5.12677034e-05, 5.29951431e-05, 5.29951431e-05,
          5.29951431e-05, 4.40587064e-05, -9.902893e-06, -2.7083539e-05,
          -2.53560993e-05, -4.2228894e-06, 5.29951431e-05,
          5.29951431e-05, 5.29951431e-05, 5.29951431e-05, 5.12677034e-05,
          0., 0., 0., 0., 0., 0., 5.12677034e-05, 5.29951431e-05,
          5.29951431e-05, 5.20302456e-05, 4.40587064e-05, -8.0238824e-06,
          -1.29499376e-05, -1.29499376e-05, -2.90250341e-06,
          5.29951431e-05, 5.1471623e-05, 5.29951431e-05, 5.29951431e-05,
          5.12677034e-05, 0., 0., 0., 0., 0., 0., 5.15817846e-05,
          5.29951431e-05, 5.29951431e-05, 5.03543743e-05, 4.40587064e-05,
          -1.92979451e-06, -8.58250769e-06, -8.07466677e-06,
          3.09001643e-06, 5.29951431e-05, 4.99480993e-05, 5.29951431e-05,
          5.29951431e-05, 5.12677034e-05, 0., 0., 0., 0., 0., 0.,
          4.07460211e-05, 5.29951431e-05, 5.29951431e-05, 4.47173406e-05,
          4.39571413e-05, 0., 0., 0., 4.15648174e-06, 5.28935743e-05,
          4.41587181e-05, 5.29951431e-05, 5.29951431e-05, 4.49861036e-05,
          0., 0., 0., 0., 0., 0., 1.78181781e-05, 4.56142625e-05,
          5.11106628e-05, 3.81607279e-05, 3.59473197e-05,
          -2.19777849e-06, -2.18918467e-06, -1.8844803e-06,
          4.62369599e-06, 4.15632603e-05, 3.81607279e-05, 5.11106628e-05,
          4.56142625e-05, 1.97026584e-05, 0., 0., 0. ]
      - [ 0., 0., 0., 4.89628728e-05, 4.89628728e-05, 4.89628728e-05, 0.,
          6.16029638e-06, -8.85339159e-06, -3.26419172e-06,
          -3.64821426e-06, -4.4321946e-06, 9.06133846e-06, 0.,
          4.89628728e-05, 4.89628728e-05, 4.89628728e-05, 0., 0., 0., 0.,
          0., 0., 4.89628728e-05, 4.89628728e-05, 4.89628728e-05,
          8.06447315e-06, 3.72501854e-05, 0., 0., 0., 3.06421271e-06,
          4.50410625e-05, 7.10441691e-06, 4.89628728e-05, 4.89628728e-05,
          4.89628728e-05, 0., 0., 0., 0., 0., 0., 4.89628728e-05,
          4.89628728e-05, 4.89628728e-05, 3.34099605e-05, 4.0706389e-05,
          0., -1.40168231e-05, -1.38248115e-05, 3.06421271e-06,
          4.84972661e-05, 3.16818587e-05, 4.89628728e-05, 4.89628728e-05,
          4.89628728e-05, 0., 0., 0., 0., 0., 0., 4.89628728e-05,
          4.89628728e-05, 4.89628728e-05, 4.43546051e-05, 4.0706389e-05,
          -9.02452939e-06, -4.83868389e-05, -4.83868389e-05,
          -3.45620288e-06, 4.89628728e-05, 4.33945461e-05,
          4.89628728e-05, 4.89628728e-05, 4.89628728e-05, 0., 0., 0., 0.,
          0., 0., 4.89628728e-05, 4.89628728e-05, 4.89628728e-05,
          4.72347747e-05, 4.0706389e-05, -1.63209588e-05,
          -4.89628728e-05, -4.89628728e-05, -9.40855261e-06,
          4.89628728e-05, 4.87708639e-05, 4.89628728e-05, 4.89628728e-05,
          4.89628728e-05, 0., 0., 0., 0., 0., 0., 4.89628728e-05,
          4.89628728e-05, 4.89628728e-05, 4.89628728e-05, 4.0706389e-05,
          -1.63209588e-05, -4.89628728e-05, -4.89628728e-05,
          -1.03686089e-05, 4.89628728e-05, 4.89628728e-05,
          4.89628728e-05, 4.89628728e-05, 4.89628728e-05, 0., 0., 0., 0.,
          0., 0., 4.89628728e-05, 4.89628728e-05, 4.89628728e-05,
          4.62747157e-05, 4.11719957e-05, -1.63209588e-05,
          -4.89628728e-05, -4.89628728e-05, -1.01765972e-05,
          4.89628728e-05, 4.89628728e-05, 4.89628728e-05, 4.89628728e-05,
          4.89628728e-05, 0., 0., 0., 0., 0., 0., 4.79291994e-05,
          4.64667282e-05, 4.64667282e-05, 4.26265033e-05, 3.70741109e-05,
          -1.63209588e-05, -4.89628728e-05, -4.89628728e-05,
          -1.49848474e-05, 4.38442185e-05, 4.64667282e-05,
          4.64667282e-05, 4.64667282e-05, 4.76187961e-05, 0., 0., 0., 0.,
          0., 0., 7.32033141e-06, 0., 0., -3.84022542e-06, 0.,
          -1.61289463e-05, -4.89628728e-05, -4.89628728e-05,
          -1.22887213e-05, 0., 0., 0., 0., 4.99229327e-06, 0., 0., 0.,
          0., 0., 0., 0., 0., 0., -6.72039459e-06, 0., -3.84022542e-06,
          -3.93623122e-05, -3.93623122e-05, -2.68815779e-06, 0., 0., 0.,
          0., 0., 0., 0., 0., 0., 0., 0., 0., 0., 0., -1.92011266e-05,
          0., 0., 0., 0., 0., 0., 0., 0., 0., 0., 0., 0., 0., 0., 0., 0.,
          2.34891172e-06, 0., 0., -4.32025372e-05, -5.37631558e-06, 0.,
          0., -9.60056354e-07, -3.64821426e-06, 0., 0., 0., 0.,
          1.72810144e-06, 0., 0., 0., 0., 0., 0., 4.45913902e-05,
          4.0130355e-05, 4.0130355e-05, -8.83251869e-06, -9.90793887e-06,
          -3.34099605e-05, -2.72656016e-05, -4.0706389e-05,
          -1.1904699e-05, 3.94647686e-05, 4.0130355e-05, 4.0130355e-05,
          4.0130355e-05, 4.53594366e-05, 0., 0., 0., 0., 0., 0.,
          4.89628728e-05, 4.89628728e-05, 4.89628728e-05, 0.,
          -8.25648476e-06, -4.89628728e-05, -4.89628728e-05,
          -4.89628728e-05, -8.64050708e-06, 4.89628728e-05,
          4.89628728e-05, 4.89628728e-05, 4.89628728e-05, 4.89628728e-05,
          0., 0., 0., 0., 0., 0., 4.89628728e-05, 4.89628728e-05,
          4.89628728e-05, 3.43700194e-05, 3.01457694e-05,
          -2.59215212e-05, -4.89628728e-05, -4.89628728e-05,
          -1.13286651e-05, 4.89628728e-05, 4.89628728e-05,
          4.89628728e-05, 4.89628728e-05, 4.89628728e-05, 0., 0., 0., 0.,
          0., 0., 4.89628728e-05, 4.89628728e-05, 4.89628728e-05,
          4.53146604e-05, 4.0706389e-05, -1.63209588e-05,
          -4.89628728e-05, -4.89628728e-05, -1.1904699e-05,
          4.89628728e-05, 4.89628728e-05, 4.89628728e-05, 4.89628728e-05,
          4.89628728e-05, 0., 0., 0., 0., 0., 0., 4.89628728e-05,
          4.89628728e-05, 4.89628728e-05, 4.4930639e-05, 4.0706389e-05,
          -1.17126874e-05, -4.89628728e-05, -4.89628728e-05,
          -6.91240575e-06, 4.89628728e-05, 4.53146604e-05,
          4.89628728e-05, 4.89628728e-05, 4.89628728e-05, 0., 0., 0., 0.,
          0., 0., 4.89628728e-05, 4.89628728e-05, 4.89628728e-05,
          3.70581765e-05, 4.0706389e-05, 0., -2.11212391e-05,
          -2.2273307e-05, 3.64821426e-06, 4.89628728e-05, 3.70581765e-05,
          4.89628728e-05, 4.89628728e-05, 4.89628728e-05, 0., 0., 0., 0.,
          0., 0., 4.89628728e-05, 4.89628728e-05, 4.89628728e-05,
          1.47848677e-05, 4.0706389e-05, 0., 0., 0., 3.84022542e-06,
          4.85788514e-05, 1.34407892e-05, 4.89628728e-05, 4.89628728e-05,
          4.89628728e-05, 0., 0., 0., 0., 0., 0., 4.89628728e-05,
          4.89628728e-05, 4.89628728e-05, 0., 1.1565453e-05,
          -6.52838344e-06, 0., -1.92011271e-07, -1.98082466e-06,
          1.52793164e-05, 0., 4.89628728e-05, 4.89628728e-05,
          4.89628728e-05, 0., 0., 0. ]
      - [ 0., 0., 0., 4.74518056e-05, 4.74518056e-05, 4.74518056e-05,
          4.74518056e-05, 3.07041082e-05, 0., -5.95473648e-06,
          -5.95473648e-06, 6.14082182e-06, 4.18692398e-05,
          4.74518056e-05, 4.74518056e-05, 4.74518056e-05, 4.74518056e-05,
          0., 0., 0., 0., 0., 0., 4.74518056e-05, 4.74518056e-05,
          4.74518056e-05, 4.74518056e-05, 3.40536499e-05, 0., 0., 0.,
          3.7217103e-06, 4.74518056e-05, 4.74518056e-05, 4.74518056e-05,
          4.74518056e-05, 4.74518056e-05, 0., 0., 0., 0., 0., 0.,
          4.74518056e-05, 4.74518056e-05, 4.74518056e-05, 4.74518056e-05,
          3.40536499e-05, 0., -1.2467729e-05, -2.75406564e-05,
          -2.38189459e-05, 1.50729265e-05, 4.74518056e-05,
          4.74518056e-05, 4.74518056e-05, 4.74518056e-05, 0., 0., 0., 0.,
          0., 0., 4.74518056e-05, 4.74518056e-05, 4.74518056e-05,
          4.74518056e-05, 3.40536499e-05, 0., -2.94015117e-05,
          -4.74518056e-05, -4.37300951e-05, 0., 4.74518056e-05,
          4.74518056e-05, 4.74518056e-05, 4.74518056e-05, 0., 0., 0., 0.,
          0., 0., 4.74518056e-05, 4.74518056e-05, 4.74518056e-05,
          4.74518056e-05, 3.40536499e-05, 0., -2.73545702e-05,
          -4.74518056e-05, -4.37300951e-05, 0., 4.74518056e-05,
          4.74518056e-05, 4.74518056e-05, 4.74518056e-05, 0., 0., 0., 0.,
          0., 0., 4.74518056e-05, 4.74518056e-05, 4.74518056e-05,
          4.74518056e-05, 3.40536499e-05, 0., -2.73545702e-05,
          -4.74518056e-05, -4.37300951e-05, 0., 4.74518056e-05,
          4.74518056e-05, 4.74518056e-05, 4.74518056e-05, 0., 0., 0., 0.,
          0., 0., 4.74518056e-05, 4.74518056e-05, 4.74518056e-05,
          4.74518056e-05, 3.40536499e-05, 0., -2.73545702e-05,
          -4.74518056e-05, -4.37300951e-05, 0., 4.74518056e-05,
          4.74518056e-05, 4.74518056e-05, 4.74518056e-05, 0., 0., 0., 0.,
          0., 0., 4.61492054e-05, 4.50326952e-05, 4.50326952e-05,
          4.50326952e-05, 2.90293392e-05, 0., -2.86571685e-05,
          -4.74518056e-05, -4.54048641e-05, -3.90779587e-06,
          4.50326952e-05, 4.50326952e-05, 4.50326952e-05, 4.61492054e-05,
          0., 0., 0., 0., 0., 0., 4.8382235e-06, 0., 0., 0.,
          -5.39647999e-06, 0., -1.33981566e-05, -2.53076305e-05,
          -2.53076305e-05, -3.75892741e-05, 0., 0., 0., 4.8382235e-06,
          0., 0., 0., 0., 0., 0., 0., 0., 0., 0., -5.39647999e-06, 0.,
          0., 0., 0., -2.19580907e-05, 0., 0., 0., 0., 0., 0., 0., 0.,
          0., 0., 0., 0., 0., 0., -5.39647999e-06, 0., -9.30427575e-07,
          -6.69907831e-06, -8.18776243e-06, -2.84710841e-05, 0., 0., 0.,
          0., 0., 0., 0., 0., 0., 0., 1.67476958e-06, 0., 0., 0.,
          -5.39647999e-06, 0., -2.62380563e-05, -4.74518056e-05,
          -4.74518056e-05, -4.74518056e-05, 0., 0., 0., 1.67476958e-06,
          0., 0., 0., 0., 0., 0., 4.26135812e-05, 3.88918706e-05,
          3.88918706e-05, 3.88918706e-05, 2.62380563e-05, 0.,
          -2.73545702e-05, -4.74518056e-05, -4.48466089e-05,
          -8.00167709e-06, 3.88918706e-05, 3.88918706e-05,
          3.88918706e-05, 4.33579226e-05, 0., 0., 0., 0., 0., 0.,
          4.74518056e-05, 4.74518056e-05, 4.74518056e-05, 4.74518056e-05,
          3.40536499e-05, 0., -2.73545702e-05, -4.74518056e-05,
          -4.37300951e-05, 0., 4.74518056e-05, 4.74518056e-05,
          4.74518056e-05, 4.74518056e-05, 0., 0., 0., 0., 0., 0.,
          4.74518056e-05, 4.74518056e-05, 4.74518056e-05, 4.74518056e-05,
          3.40536499e-05, 0., -2.73545702e-05, -4.74518056e-05,
          -4.37300951e-05, 0., 4.74518056e-05, 4.74518056e-05,
          4.74518056e-05, 4.74518056e-05, 0., 0., 0., 0., 0., 0.,
          4.74518056e-05, 4.74518056e-05, 4.74518056e-05, 4.74518056e-05,
          3.40536499e-05, 0., -2.73545702e-05, -4.74518056e-05,
          -4.37300951e-05, 0., 4.74518056e-05, 4.74518056e-05,
          4.74518056e-05, 4.74518056e-05, 0., 0., 0., 0., 0., 0.,
          4.74518056e-05, 4.74518056e-05, 4.74518056e-05, 4.74518056e-05,
          3.40536499e-05, 0., -2.97736824e-05, -4.74518056e-05,
          -4.37300951e-05, 0., 4.74518056e-05, 4.74518056e-05,
          4.74518056e-05, 4.74518056e-05, 0., 0., 0., 0., 0., 0.,
          4.74518056e-05, 4.74518056e-05, 4.74518056e-05, 4.74518056e-05,
          3.40536499e-05, 0., -1.41424989e-05, -2.75406564e-05,
          -2.38189459e-05, 1.71198662e-05, 4.74518056e-05,
          4.74518056e-05, 4.74518056e-05, 4.74518056e-05, 0., 0., 0., 0.,
          0., 0., 4.74518056e-05, 4.74518056e-05, 4.74518056e-05,
          4.74518056e-05, 3.40536499e-05, 0., 0., 0., 3.7217103e-06,
          4.74518056e-05, 4.74518056e-05, 4.74518056e-05, 4.74518056e-05,
          4.74518056e-05, 0., 0., 0., 0., 0., 0., 4.74518056e-05,
          4.74518056e-05, 4.74518056e-05, 4.74518056e-05, 3.07041082e-05,
          -4.27996656e-06, -5.95473648e-06, -5.95473648e-06,
          2.41911175e-06, 4.2055326e-05, 4.74518056e-05, 4.74518056e-05,
          4.74518056e-05, 4.74518056e-05, 0., 0., 0. ]
      - [ 0., 0., 0., 4.38831921e-05, 4.38831921e-05, 3.56228265e-05,
          3.83762817e-05, 3.26972804e-05, -3.95809184e-05,
          -4.38831921e-05, -4.38831921e-05, -1.77253678e-05,
          3.90646455e-05, 4.04413731e-05, 4.38831921e-05, 4.38831921e-05,
          4.38831921e-05, 0., 0., 0., 0., 0., 0., 4.38831921e-05,
          4.38831921e-05, 3.83762817e-05, 4.38831921e-05, 3.64832813e-05,
          -3.25251895e-05, -4.38831921e-05, -4.38831921e-05,
          -1.85858225e-05, 4.38831921e-05, 4.38831921e-05,
          4.38831921e-05, 4.38831921e-05, 4.38831921e-05, 0., 0., 0., 0.,
          0., 0., 4.38831921e-05, 4.38831921e-05, 3.83762817e-05,
          4.38831921e-05, 3.64832813e-05, -2.25439144e-05,
          -4.38831921e-05, -4.38831921e-05, -1.85858225e-05,
          4.38831921e-05, 4.38831921e-05, 4.38831921e-05, 4.38831921e-05,
          4.38831921e-05, 0., 0., 0., 0., 0., 0., 4.38831921e-05,
          4.38831921e-05, 3.83762817e-05, 4.38831921e-05, 3.64832813e-05,
          -7.22781988e-06, -4.38831921e-05, -4.38831921e-05,
          -1.84137316e-05, 4.38831921e-05, 4.38831921e-05,
          4.38831921e-05, 4.38831921e-05, 4.38831921e-05, 0., 0., 0., 0.,
          0., 0., 4.38831921e-05, 4.38831921e-05, 3.83762817e-05,
          4.38831921e-05, 3.64832813e-05, 0., -4.23343736e-05,
          -4.38831921e-05, -1.84137316e-05, 4.38831921e-05,
          4.38831921e-05, 4.38831921e-05, 4.38831921e-05, 4.38831921e-05,
          0., 0., 0., 0., 0., 0., 4.38831921e-05, 4.38831921e-05,
          3.83762817e-05, 4.38831921e-05, 3.64832813e-05, 0.,
          -3.20089166e-05, -4.38831921e-05, -1.85858225e-05,
          4.38831921e-05, 4.38831921e-05, 4.38831921e-05, 4.38831921e-05,
          4.38831921e-05, 0., 0., 0., 0., 0., 0., 4.38831921e-05,
          4.38831921e-05, 3.83762817e-05, 4.38831921e-05, 3.64832813e-05,
          0., -2.11671868e-05, -4.38831921e-05, -1.85858225e-05,
          4.38831921e-05, 4.38831921e-05, 4.38831921e-05, 4.38831921e-05,
          4.38831921e-05, 0., 0., 0., 0., 0., 0., 4.26785555e-05,
          4.16460098e-05, 3.61390994e-05, 4.16460098e-05, 2.18555506e-05,
          0., -1.25626393e-05, -4.38831921e-05, -1.99625501e-05,
          4.02692822e-05, 4.16460098e-05, 4.16460098e-05, 4.16460098e-05,
          4.26785555e-05, 0., 0., 0., 0., 0., 0., 4.47436469e-06, 0.,
          -5.50691038e-06, 0., -2.97717343e-05, -2.92554614e-06,
          -8.60454747e-07, -4.00971912e-05, -2.20276415e-05, 0., 0., 0.,
          0., 4.47436469e-06, 0., 0., 0., 0., 0., 0., 0., 0.,
          -5.50691038e-06, 0., -3.28693714e-05, -1.65207312e-05, 0.,
          -3.04600981e-05, -2.20276415e-05, 0., 0., 0., 0., 0., 0., 0.,
          0., 0., 0., 0., 0., 0., -5.50691038e-06, 0., -3.28693714e-05,
          -2.59857334e-05, 0., -1.61765493e-05, -2.63299153e-05, 0., 0.,
          0., 0., 0., 0., 0., 0., 0., 0., 0., 1.54881855e-06, 0.,
          -5.50691038e-06, 0., -3.28693714e-05, -4.0957646e-05, 0.,
          -7.39991083e-06, -2.23718234e-05, 0., 0., 0., 0.,
          1.54881855e-06, 0., 0., 0., 0., 0., 0., 3.94088274e-05,
          3.59670084e-05, 3.04600981e-05, 3.59670084e-05,
          -3.61390994e-06, -4.38831921e-05, -7.05572893e-06,
          -1.20463665e-06, -1.44556398e-05, 3.64832813e-05,
          3.59670084e-05, 3.59670084e-05, 3.59670084e-05, 4.00971912e-05,
          0., 0., 0., 0., 0., 0., 4.38831921e-05, 4.38831921e-05,
          3.83762817e-05, 4.38831921e-05, 3.61390994e-06,
          -4.38831921e-05, -1.7037004e-05, 0., 3.44181899e-06,
          4.38831921e-05, 4.38831921e-05, 4.38831921e-05, 4.38831921e-05,
          4.38831921e-05, 0., 0., 0., 0., 0., 0., 4.38831921e-05,
          4.38831921e-05, 3.83762817e-05, 4.38831921e-05, 3.61390994e-06,
          -4.38831921e-05, -2.85670976e-05, 0., 3.44181899e-06,
          4.38831921e-05, 4.38831921e-05, 4.38831921e-05, 4.38831921e-05,
          4.38831921e-05, 0., 0., 0., 0., 0., 0., 4.38831921e-05,
          4.38831921e-05, 3.83762817e-05, 4.38831921e-05, 3.61390994e-06,
          -4.38831921e-05, -3.94088274e-05, -3.44181899e-07,
          3.44181899e-06, 4.38831921e-05, 4.38831921e-05, 4.38831921e-05,
          4.38831921e-05, 4.38831921e-05, 0., 0., 0., 0., 0., 0.,
          4.38831921e-05, 4.38831921e-05, 3.83762817e-05, 4.38831921e-05,
          3.61390994e-06, -4.38831921e-05, -4.38831921e-05,
          -9.29291127e-06, 3.44181899e-06, 4.38831921e-05,
          4.38831921e-05, 4.38831921e-05, 4.38831921e-05, 4.38831921e-05,
          0., 0., 0., 0., 0., 0., 4.38831921e-05, 4.38831921e-05,
          3.83762817e-05, 4.38831921e-05, 3.61390994e-06,
          -4.38831921e-05, -4.38831921e-05, -2.13392777e-05,
          3.44181899e-06, 4.38831921e-05, 4.38831921e-05, 4.38831921e-05,
          4.38831921e-05, 4.38831921e-05, 0., 0., 0., 0., 0., 0.,
          4.38831921e-05, 4.38831921e-05, 3.83762817e-05, 4.38831921e-05,
          3.61390994e-06, -4.38831921e-05, -4.38831921e-05,
          -3.52786446e-05, 3.44181899e-06, 4.38831921e-05,
          4.38831921e-05, 4.38831921e-05, 4.38831921e-05, 4.38831921e-05,
          0., 0., 0., 0., 0., 0., 4.38831921e-05, 4.38831921e-05,
          3.42460989e-05, 3.83762817e-05, 3.44181899e-06,
          -4.23343736e-05, -4.38831921e-05, -4.33669193e-05, 0.,
          3.83762817e-05, 3.90646455e-05, 4.38831921e-05, 4.38831921e-05,
          4.38831921e-05, 0., 0., 0. ]
      - [ 0., 0., 0., 4.59203548e-05, 4.59203548e-05, 4.59203548e-05, 0.,
          1.08047891e-06, -1.27856674e-05, -3.06135689e-06,
          -5.04223499e-06, -4.32191564e-06, 6.12271378e-06, 0.,
          4.59203548e-05, 4.59203548e-05, 4.59203548e-05, 0., 0., 0., 0.,
          0., 0., 4.59203548e-05, 4.59203548e-05, 4.59203548e-05,
          2.70119745e-06, 3.27745292e-05, 0., 0., 0., 3.60159652e-06,
          4.05179599e-05, 4.68207554e-06, 4.59203548e-05, 4.59203548e-05,
          4.59203548e-05, 0., 0., 0., 0., 0., 0., 4.59203548e-05,
          4.59203548e-05, 4.59203548e-05, 1.96287001e-05, 3.81769205e-05,
          -3.60159646e-07, -2.12494197e-05, -1.96287001e-05,
          3.60159652e-06, 4.59203548e-05, 2.77322924e-05, 4.59203548e-05,
          4.59203548e-05, 4.59203548e-05, 0., 0., 0., 0., 0., 0.,
          4.59203548e-05, 4.59203548e-05, 4.59203548e-05, 3.16940495e-05,
          3.81769205e-05, -1.54868649e-05, -4.59203548e-05,
          -4.59203548e-05, -1.40462262e-05, 4.59203548e-05,
          3.58358848e-05, 4.59203548e-05, 4.59203548e-05, 4.59203548e-05,
          0., 0., 0., 0., 0., 0., 4.59203548e-05, 4.59203548e-05,
          4.59203548e-05, 3.5115565e-05, 3.81769205e-05, -2.89928521e-05,
          -4.59203548e-05, -4.59203548e-05, -2.26900574e-05,
          4.59203548e-05, 4.05179599e-05, 4.59203548e-05, 4.59203548e-05,
          4.59203548e-05, 0., 0., 0., 0., 0., 0., 4.59203548e-05,
          4.59203548e-05, 4.59203548e-05, 3.78167642e-05, 3.81769205e-05,
          -2.70119726e-05, -4.59203548e-05, -4.59203548e-05,
          -2.4851015e-05, 4.59203548e-05, 4.05179599e-05, 4.59203548e-05,
          4.59203548e-05, 4.59203548e-05, 0., 0., 0., 0., 0., 0.,
          4.59203548e-05, 4.59203548e-05, 4.59203548e-05, 2.89928521e-05,
          3.81769205e-05, -1.08047898e-05, -4.59203548e-05,
          -4.59203548e-05, -3.69163645e-05, 2.23298975e-05,
          1.4946625e-05, 4.59203548e-05, 4.59203548e-05, 4.59203548e-05,
          0., 0., 0., 0., 0., 0., 4.46597951e-05, 4.35793154e-05,
          4.35793154e-05, 1.5126705e-05, 3.33147655e-05, 0.,
          -2.70119726e-05, -4.59203548e-05, -4.39394753e-05,
          -3.78167624e-06, -2.34103777e-06, 4.35793154e-05,
          4.35793154e-05, 4.46597951e-05, 0., 0., 0., 0., 0., 0.,
          4.68207554e-06, 0., 0., -4.42996352e-05, -7.02311308e-06, 0.,
          -1.44063858e-06, -3.58358848e-05, -4.59203548e-05,
          -4.59203548e-05, -4.59203548e-05, 0., 0., 4.68207554e-06, 0.,
          0., 0., 0., 0., 0., 0., 0., 0., -4.59203548e-05,
          -4.05179599e-05, -3.96175619e-06, 0., -4.68207554e-06,
          -3.97976401e-05, -4.59203548e-05, -4.59203548e-05, 0., 0., 0.,
          0., 0., 0., 0., 0., 0., 0., 0., 0., -4.59203548e-05,
          -4.59203548e-05, -3.5115565e-05, -1.44063858e-06, 0.,
          -7.38327253e-06, -4.39394753e-05, -4.59203548e-05, 0., 0., 0.,
          0., 0., 0., 0., 0., 0., 1.62071842e-06, 0., 0.,
          -4.59203548e-05, -4.59203548e-05, -4.59203548e-05,
          -3.16940495e-05, -7.20319292e-07, 0., -1.24255075e-05,
          -4.55601948e-05, 0., 0., 1.62071842e-06, 0., 0., 0., 0., 0.,
          0., 4.12382797e-05, 3.76366843e-05, 3.76366843e-05,
          -8.28367138e-06, -1.53067849e-05, -4.59203548e-05,
          -4.59203548e-05, -2.43107752e-05, 2.52111749e-06,
          3.81769205e-05, 7.92351238e-06, 3.76366843e-05, 3.76366843e-05,
          4.19585995e-05, 0., 0., 0., 0., 0., 0., 4.59203548e-05,
          4.59203548e-05, 4.59203548e-05, 8.10359234e-06, 3.78167624e-06,
          -4.46597951e-05, -4.59203548e-05, -4.55601948e-05,
          -7.56335248e-06, 4.59203548e-05, 3.11538097e-05,
          4.59203548e-05, 4.59203548e-05, 4.59203548e-05, 0., 0., 0., 0.,
          0., 0., 4.59203548e-05, 4.59203548e-05, 4.59203548e-05,
          4.12382797e-05, 3.81769205e-05, -3.16940495e-05,
          -4.59203548e-05, -4.59203548e-05, -2.61115747e-05,
          4.59203548e-05, 4.19585995e-05, 4.59203548e-05, 4.59203548e-05,
          4.59203548e-05, 0., 0., 0., 0., 0., 0., 4.59203548e-05,
          4.59203548e-05, 4.59203548e-05, 4.05179599e-05, 3.81769205e-05,
          -3.31346855e-05, -4.59203548e-05, -4.59203548e-05,
          -3.02534099e-05, 4.59203548e-05, 4.59203548e-05,
          4.59203548e-05, 4.59203548e-05, 4.59203548e-05, 0., 0., 0., 0.,
          0., 0., 4.59203548e-05, 4.59203548e-05, 4.59203548e-05,
          4.05179599e-05, 3.81769205e-05, -2.70119726e-05,
          -4.59203548e-05, -4.59203548e-05, -2.19697376e-05,
          4.59203548e-05, 4.12382797e-05, 4.59203548e-05, 4.59203548e-05,
          4.59203548e-05, 0., 0., 0., 0., 0., 0., 4.59203548e-05,
          4.59203548e-05, 4.59203548e-05, 3.16940495e-05, 3.81769205e-05,
          -3.78167624e-06, -3.007333e-05, -2.97131701e-05,
          -1.08047891e-06, 4.59203548e-05, 2.97131701e-05,
          4.59203548e-05, 4.59203548e-05, 4.59203548e-05, 0., 0., 0., 0.,
          0., 0., 4.59203548e-05, 4.59203548e-05, 4.59203548e-05,
          1.24255075e-05, 3.78167642e-05, 0., 0., 0., 3.60159652e-06,
          4.28589992e-05, 7.74343243e-06, 4.59203548e-05, 4.59203548e-05,
          4.59203548e-05, 0., 0., 0., 0., 0., 0., 4.59203548e-05,
          4.59203548e-05, 4.59203548e-05, 0., 7.02311308e-06,
          -7.20319304e-06, 0., -3.60159646e-07, -3.78167624e-06,
          8.82391123e-06, 0., 4.59203548e-05, 4.59203548e-05,
          4.59203548e-05, 0., 0., 0. ]
      - [ 0., 0., 0., 5.50398945e-05, 5.50398945e-05, 4.66220299e-05,
          5.15864122e-05, 2.18001151e-05, -5.13705672e-05,
          -5.50398945e-05, -5.50398945e-05, -2.54694423e-05,
          5.02913535e-05, 4.9859671e-05, 5.50398945e-05, 5.50398945e-05,
          5.50398945e-05, 0., 0., 0., 0., 0., 0., 5.50398945e-05,
          5.50398945e-05, 4.12259615e-05, 5.50398945e-05, 3.28080932e-05,
          -5.50398945e-05, -5.50398945e-05, -5.50398945e-05,
          -2.54694423e-05, 5.50398945e-05, 4.70537161e-05,
          5.50398945e-05, 5.50398945e-05, 5.50398945e-05, 0., 0., 0., 0.,
          0., 0., 5.50398945e-05, 5.50398945e-05, 3.10813521e-05,
          5.50398945e-05, 3.75566342e-05, -5.50398945e-05,
          -5.50398945e-05, -5.50398945e-05, -1.81307896e-05,
          5.50398945e-05, 3.69091067e-05, 5.50398945e-05, 5.50398945e-05,
          5.50398945e-05, 0., 0., 0., 0., 0., 0., 5.50398945e-05,
          5.50398945e-05, 2.37426993e-05, 5.50398945e-05, 4.20893302e-05,
          -5.46082083e-05, -5.50398945e-05, -5.50398945e-05,
          -8.63370951e-06, 5.50398945e-05, 2.87070834e-05,
          5.50398945e-05, 5.50398945e-05, 5.50398945e-05, 0., 0., 0., 0.,
          0., 0., 5.50398945e-05, 5.50398945e-05, 1.33822487e-05,
          5.50398945e-05, 4.57586575e-05, -5.18022534e-05,
          -5.50398945e-05, -5.46082083e-05, 6.47528168e-07,
          5.50398945e-05, 2.26634857e-05, 5.50398945e-05, 5.50398945e-05,
          5.50398945e-05, 0., 0., 0., 0., 0., 0., 5.50398945e-05,
          5.50398945e-05, 2.15842738e-06, 5.50398945e-05, 4.57586575e-05,
          -4.511113e-05, -5.50398945e-05, -5.28814671e-05,
          4.31685476e-06, 5.50398945e-05, 1.48931485e-05, 5.50398945e-05,
          5.50398945e-05, 5.50398945e-05, 0., 0., 0., 0., 0., 0.,
          5.50398945e-05, 5.50398945e-05, 0., 4.9859671e-05,
          4.57586575e-05, -3.77724755e-05, -5.50398945e-05,
          -4.77012436e-05, 4.31685476e-06, 5.50398945e-05,
          6.47528168e-06, 5.50398945e-05, 5.50398945e-05, 5.50398945e-05,
          0., 0., 0., 0., 0., 0., 5.35289946e-05, 5.22339396e-05,
          -2.80595555e-06, 4.20893302e-05, 3.99309029e-05,
          -2.9570454e-05, -5.50398945e-05, -3.62615792e-05,
          2.37427003e-06, 4.59745024e-05, -2.37427003e-06,
          5.22339396e-05, 5.22339396e-05, 5.35289946e-05, 0., 0., 0., 0.,
          0., 0., 5.61191109e-06, 0., -5.50398945e-05, -1.81307896e-05,
          0., -2.46060699e-05, -5.50398945e-05, -2.61169698e-05, 0.,
          -1.18713497e-05, -5.50398945e-05, 0., 0., 5.61191109e-06, 0.,
          0., 0., 0., 0., 0., 0., 0., -5.50398945e-05, -2.82753972e-05,
          0., -1.51089907e-05, -5.50398945e-05, -1.96416877e-05, 0.,
          -1.87783171e-05, -5.50398945e-05, 0., 0., 0., 0., 0., 0., 0.,
          0., 0., 0., 0., -5.50398945e-05, -3.64774205e-05, 0.,
          -3.45348371e-06, -5.48240532e-05, -1.7267419e-05, 0.,
          -3.28080932e-05, -5.50398945e-05, 0., 0., 0., 0., 0., 0., 0.,
          0., 0., 1.9425845e-06, 0., -5.50398945e-05, -4.0578434e-05, 0.,
          0., -5.15864122e-05, -8.20202331e-06, 0., -4.31685439e-05,
          -5.50398945e-05, 0., 0., 1.9425845e-06, 0., 0., 0., 0., 0., 0.,
          4.94279848e-05, 4.511113e-05, -9.92876539e-06, -4.10101165e-06,
          3.62615792e-05, 0., -4.61903437e-05, -2.80595555e-06,
          3.02179819e-06, -2.15842738e-06, -9.92876539e-06, 4.511113e-05,
          4.511113e-05, 5.02913535e-05, 0., 0., 0., 0., 0., 0.,
          5.50398945e-05, 5.50398945e-05, 0., 0., 3.77724755e-05, 0.,
          -2.61169698e-05, 0., 1.5108991e-06, 6.47528168e-07, 0.,
          5.50398945e-05, 5.50398945e-05, 5.50398945e-05, 0., 0., 0., 0.,
          0., 0., 5.50398945e-05, 5.50398945e-05, 0., 0., 2.87070834e-05,
          0., -2.15842732e-07, 0., -6.69112433e-06, 0., 0.,
          5.50398945e-05, 5.50398945e-05, 5.50398945e-05, 0., 0., 0., 0.,
          0., 0., 5.50398945e-05, 5.50398945e-05, 0., 0., 2.1584272e-05,
          0., 0., 0., -1.42456202e-05, 0., 0., 5.50398945e-05,
          5.50398945e-05, 5.50398945e-05, 0., 0., 0., 0., 0., 0.,
          5.50398945e-05, 5.50398945e-05, 0., 0., 1.10079791e-05, 0., 0.,
          0., -1.94258446e-05, 0., 0., 5.50398945e-05, 5.50398945e-05,
          5.50398945e-05, 0., 0., 0., 0., 0., 0., 5.50398945e-05,
          5.50398945e-05, 0., 0., 0., 0., 0., 0., -2.67644973e-05, 0.,
          0., 5.50398945e-05, 5.50398945e-05, 5.50398945e-05, 0., 0., 0.,
          0., 0., 0., 5.50398945e-05, 5.50398945e-05, 0., 0.,
          -5.39606799e-06, -4.31685464e-07, 0., 0., -3.56140481e-05, 0.,
          0., 5.50398945e-05, 5.50398945e-05, 5.50398945e-05, 0., 0., 0.,
          0., 0., 0., 5.50398945e-05, 5.50398945e-05, 0., 0.,
          -6.04359639e-06, -9.4970801e-06, -6.90696743e-06,
          -5.82775374e-06, -4.25210164e-05, 0., 0., 5.50398945e-05,
          5.50398945e-05, 5.50398945e-05, 0., 0., 0. ]
      - [ 0., 0., 0., 0., 0., 4.63673641e-05, 9.80111599e-06,
          -7.57565358e-05, -7.45509024e-05, -7.45509024e-05,
          -7.97723696e-05, -3.36298181e-05, 6.62845378e-06,
          5.85507987e-05, 0., 0., 0., 0., 0., 0., 0., 0., 0., 0., 0.,
          5.22441326e-07, 0., -9.9012912e-05, -9.9012912e-05,
          -9.9012912e-05, -9.69610264e-05, -6.48704781e-06,
          -1.43130264e-05, 7.1238901e-06, 0., 0., 0., 0., 0., 0., 0., 0.,
          0., 0., 0., 0., 0., -9.9012912e-05, -9.9012912e-05,
          -9.9012912e-05, -8.41475849e-05, 0., -3.9099712e-05,
          8.03755853e-08, 0., 0., 0., 0., 0., 0., 0., 0., 0., 0., 0., 0.,
          0., -9.9012912e-05, -9.9012912e-05, -9.9012912e-05,
          -6.62897874e-05, 0., -5.84069021e-05, 2.29070406e-06, 0., 0.,
          0., 0., 0., 0., 0., 0., 0., 0., 0., 0., 0., -9.9012912e-05,
          -9.9012912e-05, -9.9012912e-05, -4.149304e-05, 0.,
          -8.14262312e-05, 2.29070406e-06, 0., 0., 0., 0., 0., 0., 0.,
          0., 0., 0., 0., 0., 0., -9.9012912e-05, -9.9012912e-05,
          -9.9012912e-05, -2.24067717e-05, -5.15817692e-06,
          -9.82363417e-05, 2.29070406e-06, 0., 0., 0., 0., 0., 0., 0.,
          0., 0., 0., 0., 0., 0., -9.9012912e-05, -9.9012912e-05,
          -8.88036666e-05, -6.09205529e-07, -2.40703739e-05,
          -9.9012912e-05, 2.29070406e-06, 0., 0., 0., 0., 0., 0., 0., 0.,
          0., 0., 0., 0., 0., -9.9012912e-05, -9.9012912e-05,
          -6.5834538e-05, 0., -5.68571122e-05, -9.9012912e-05,
          2.29070406e-06, 0., 0., 0., 0., 0., 0., 0., 0., 0., 0., 0.,
          2.41126742e-07, 0., -9.9012912e-05, -9.9012912e-05,
          -4.42076889e-05, 0., -7.71082414e-05, -9.9012912e-05,
          2.29070406e-06, 0., 0., 0., 0., 0., 0., 0., 0., 0., 0., 0.,
          4.11854926e-05, 1.20368641e-05, -8.69760479e-05,
          -8.7176988e-05, -2.13323929e-05, -6.20922174e-06,
          -9.84037106e-05, -9.9012912e-05, 2.29070406e-06, 0., 0., 0.,
          0., 0., 0., 0., 0., 0., 0., 0., 9.9012912e-05, 9.9012912e-05,
          4.06575815e-20, 2.57618979e-07, 4.20648248e-05, -2.4127281e-05,
          -9.9012912e-05, -9.9012912e-05, 2.29070406e-06, 0., 0., 0., 0.,
          0., 0., 0., 0., 0., 0., 0., 9.9012912e-05, 9.9012912e-05,
          4.06575815e-20, 1.77004931e-05, 4.56433954e-05,
          -4.41474294e-05, -9.9012912e-05, -9.9012912e-05,
          1.55184334e-05, 0., 0., 0., 0., 0., 0., 0., 0., 0., 0., 0.,
          9.9012912e-05, 9.9012912e-05, 4.06575815e-20, 3.772735e-05,
          2.3337343e-05, -6.68956418e-05, -9.9012912e-05, -9.9012912e-05,
          2.32303719e-05, 0., 0., 0., 0., 0., 0., 0., 0., 0., 0., 0.,
          9.9012912e-05, 9.9012912e-05, 4.06575815e-20, 4.03120102e-05,
          8.16759666e-07, -8.65342081e-05, -9.9012912e-05,
          -9.9012912e-05, 4.02623482e-05, 0., 0., 0., 0., 0., 0., 0., 0.,
          0., 0., 0., 9.9012912e-05, 9.9012912e-05, -2.2560771e-05,
          3.43123429e-06, -2.14728916e-05, -9.9012912e-05,
          -9.9012912e-05, -9.8450284e-05, 7.3186282e-05, 0., 0., 0., 0.,
          0., 0., 0., 0., 0., 0., 0., 9.74195791e-05, 3.97121366e-05,
          -8.61324661e-05, 0., -4.23265192e-05, -9.9012912e-05,
          -9.9012912e-05, -7.21396282e-05, 9.86648156e-05, 0., 0., 0.,
          0., 0., 0., 0., 0., 0., 0., 0., 7.51265325e-05, 0.,
          -6.18445702e-05, 0., -6.77860226e-05, -9.9012912e-05,
          -8.99747756e-05, -1.52229386e-05, 9.9012912e-05, 0., 0., 0.,
          0., 0., 0., 0., 0., 0., 0., 0., 6.85256746e-05, 0.,
          -4.6480498e-05, 0., -8.90882002e-05, -8.34950697e-05,
          -1.36969793e-05, 4.06575815e-20, 9.9012912e-05, 0., 0., 0., 0.,
          0., 0., 0., 0., 0., 0., 0., 6.85256746e-05, 0., -2.3959914e-05,
          -7.54144594e-06, -8.02074574e-05, -1.03495649e-05,
          4.06575815e-20, 4.06575815e-20, 9.9012912e-05, 0., 0., 0., 0.,
          0., 0., 0., 0., 0., 0., 0., 8.72035816e-05, 9.23848711e-06,
          1.07084461e-05, 3.16017176e-05, -3.8828594e-07, 4.06575815e-20,
          4.06575815e-20, 4.06575815e-20, 9.9012912e-05, 0., 0., 0., 0.,
          0., 0. ]
      - [ 0., 0., 0., -9.53651397e-05, -5.07838777e-05, 5.66130038e-05,
          -3.47474852e-05, -6.32491265e-06, 1.7553537e-05,
          2.57404354e-05, 1.87315654e-05, -2.0343512e-05, -2.7413389e-05,
          3.61469065e-05, -8.14092709e-06, -4.53565917e-05,
          -8.91625314e-05, 0., 0., 0., 0., 0., 0., -4.14799615e-05, 0.,
          0., -3.5305995e-05, -2.89952618e-06, 0., 0., 0., 0.,
          -2.38784492e-06, -2.61263813e-05, 0., 0., -2.48104443e-05, 0.,
          0., 0., 0., 0., 0., -9.69157918e-06, 0., 0., -1.65443544e-05,
          0., -5.11681094e-07, -1.99555616e-05, -2.16611661e-05, 0., 0.,
          -1.19392253e-05, 0., 0., -3.48896856e-06, 0., 0., 0., 0., 0.,
          0., -4.26429506e-06, 0., 0., -6.65185416e-06, 0.,
          -1.77382772e-05, -4.34928916e-05, -4.34928916e-05,
          -1.84205182e-05, 0., -5.2873711e-06, 0., 0., -4.26429506e-06,
          0., 0., 0., 0., 0., 0., -4.26429506e-06, 0., 0.,
          -5.2873711e-06, 0., -2.50723733e-05, -7.0629314e-05,
          -7.45059442e-05, -2.57546144e-05, 0., -6.82241421e-07, 0., 0.,
          -4.26429506e-06, 0., 0., 0., 0., 0., 0., -4.26429506e-06, 0.,
          0., -3.24064672e-06, 0., -2.50723733e-05, -0.000128391126,
          -0.000135756723, -3.08251692e-05, 0., -3.24064672e-06, 0., 0.,
          -4.26429506e-06, 0., 0., 0., 0., 0., 0., -4.26429506e-06, 0.,
          0., -5.2873711e-06, 0., -2.50723733e-05, -0.000129554115,
          -0.000142347009, -3.36009616e-05, 0., -2.04672438e-06, 0., 0.,
          -4.26429506e-06, 0., 0., 0., 0., 0., 0., -4.26429506e-06, 0.,
          0., -5.2873711e-06, 0., -2.50723733e-05, -0.000129554115,
          -0.000142347009, -3.36009616e-05, 0., 0., 0., 0.,
          -4.26429506e-06, 0., 0., 0., 0., 0., 0., -4.26429506e-06, 0.,
          0., -5.2873711e-06, 0., -2.50723733e-05, -0.000129554115,
          -0.000142347009, -3.36009616e-05, 0., 0., 0., 0.,
          -4.26429506e-06, 0., 0., 0., 0., 0., 0., -4.26429506e-06, 0.,
          5.80552478e-05, 1.20175591e-05, 1.73049302e-05,
          -7.76744309e-06, -0.000126763, -0.000142347009,
          -3.36009616e-05, 0., 0., 0., 0., -4.26429506e-06, 0., 0., 0.,
          0., 0., 0., -4.26429506e-06, 0., 0.000142347009,
          0.000137059629, 0.000142347009, 0.000117274634,
          -5.81015047e-05, -0.000142347009, -3.36009616e-05, 0., 0., 0.,
          0., -4.26429506e-06, 0., 0., 0., 0., 0., 0., -4.26429506e-06,
          0., 0.000142347009, 0.000137059629, 0.000142347009,
          0.000117274634, -6.3125517e-05, -0.000142347009,
          -3.36009616e-05, 0., 2.12124942e-05, 0., 0., -4.26429506e-06,
          0., 0., 0., 0., 0., 0., -4.26429506e-06, 0., 0.000142347009,
          0.000137059629, 0.000142347009, 0.000117274634,
          -9.60607067e-05, -0.000142347009, -3.36009616e-05, 0.,
          3.22529486e-05, 0., 0., -4.26429506e-06, 0., 0., 0., 0., 0.,
          0., -4.26429506e-06, 0., 0.000142347009, 0.000137059629,
          0.000142347009, 7.9873651e-05, -0.000127879452,
          -0.000142347009, -3.42832027e-05, 0., 4.94185369e-05, 0., 0.,
          -4.26429506e-06, 0., 0., 0., 0., 0., 0., -4.26429506e-06, 0.,
          0.000142347009, 0.000137059629, 0.000109970038,
          -1.22332312e-05, -0.000129554115, -0.000141959346,
          -3.67485263e-05, 0., 9.68675376e-05, 0., 0., -4.26429506e-06,
          0., 0., 0., 0., 0., 0., -4.26429506e-06, 0., 0.000140114105,
          5.22096525e-05, 5.58223519e-07, -2.50723733e-05,
          -7.83825744e-05, -7.41182812e-05, -2.50723733e-05,
          3.51680828e-05, 0.000141106531, 0., 0., -4.26429506e-06, 0.,
          0., 0., 0., 0., 0., -4.26429506e-06, 0., 0.000108295368,
          -5.2873711e-06, 0., -2.23434072e-05, -4.34928916e-05,
          -4.34928916e-05, -1.13029537e-05, 0.000118901611,
          0.000137059629, 0., 0., -4.26429506e-06, 0., 0., 0., 0., 0.,
          0., -3.48896856e-06, 0., 9.8805569e-05, -1.31331481e-05, 0.,
          -4.77568983e-06, -2.814246e-05, -5.25529413e-06,
          0.000118839751, 0.000142347009, 0.000133136738, 0., 0.,
          -4.26429506e-06, 0., 0., 0., 0., 0., 0., -3.02377284e-05, 0.,
          9.8805569e-05, -3.05303038e-05, -5.11681094e-07, 0.,
          2.56782823e-05, 0.000126716739, 0.000142347009, 0.000142347009,
          0.000114033981, 0., 0., -1.97708232e-05, 0., 0., 0., 0., 0.,
          0., -8.68365532e-05, -1.82201693e-05, 0.000120948338,
          -3.47474852e-05, -1.07909873e-05, 8.65714755e-05,
          0.000136966264, 0.000137695039, 0.000129167034, 0.000108017543,
          9.42021506e-05, -4.65195808e-06, -1.82201693e-05,
          -7.71449704e-05, 0., 0., 0. ]
      - [ 0., 0., 0., -5.08581179e-05, -5.08581179e-05, 5.08044577e-05,
          -1.16823958e-05, -4.72795618e-05, -0.000102832761,
          -7.28833475e-05, 2.62291051e-05, -2.44475395e-05,
          1.37605066e-05, 6.76738273e-05, -5.08581179e-05,
          -5.08581179e-05, -5.08581179e-05, 0., 0., 0., 0., 0., 0.,
          -5.08581179e-05, -5.08581179e-05, -4.42735072e-05,
          -6.38219535e-06, -8.41875808e-05, -0.000128370346,
          -3.83979495e-05, 0., -1.02345684e-05, -8.77551884e-06,
          -2.69147367e-05, -5.08581179e-05, -5.08581179e-05,
          -5.08581179e-05, 0., 0., 0., 0., 0., 0., -5.08581179e-05,
          -5.08581179e-05, -1.95454722e-05, 0., -1.51867798e-05,
          -1.04489263e-05, 0., 0., -1.10836281e-05, -8.77551884e-06,
          -5.02439907e-05, -5.08581179e-05, -5.08581179e-05,
          -5.08581179e-05, 0., 0., 0., 0., 0., 0., -5.08581179e-05,
          -3.94898343e-05, -1.79499239e-06, 0., -2.31103172e-06,
          -1.55673524e-06, 0., 0., -1.26403629e-05, -8.77551884e-06,
          -3.33554199e-05, -5.08581179e-05, -5.08581179e-05,
          -5.08581179e-05, 0., 0., 0., 0., 0., 0., -5.08581179e-05,
          -1.23655036e-05, 0., 0., -7.6594195e-05, -0.00013202375,
          -5.91528951e-05, 0., -1.57538343e-05, -8.77551884e-06,
          -3.33554199e-05, -5.08581179e-05, -5.08581179e-05,
          -5.08581179e-05, 0., 0., 0., 0., 0., 0., -4.72681349e-05,
          -1.59554884e-06, 0., 0., -8.41875808e-05, -0.000150348831,
          -8.08035256e-05, 0., -1.05647159e-05, -8.77551884e-06,
          -3.33554199e-05, -5.08581179e-05, -5.08581179e-05,
          -5.08581179e-05, 0., 0., 0., 0., 0., 0., -5.08581179e-05,
          -4.68692451e-05, -4.64703589e-05, -3.45037442e-05,
          -8.59825741e-05, -0.000150348831, -7.71718987e-05, 0.,
          -1.57538343e-05, -8.77551884e-06, -3.33554199e-05,
          -5.08581179e-05, -5.08581179e-05, -5.08581179e-05, 0., 0., 0.,
          0., 0., 0., -5.08581179e-05, -5.08581179e-05, -5.08581179e-05,
          -5.08581179e-05, -9.29630987e-05, -0.000150348831,
          -7.71718987e-05, 0., -1.05647159e-05, -8.77551884e-06,
          -3.33554199e-05, -5.08581179e-05, -5.08581179e-05,
          -5.08581179e-05, 0., 0., 0., 0., 0., 0., -5.08581179e-05,
          -5.08581179e-05, -4.9015729e-05, -5.08581179e-05,
          -9.29630987e-05, -0.000150348831, -7.71718987e-05, 0.,
          -1.05647159e-05, -8.77551884e-06, -3.33554199e-05,
          -5.08581179e-05, -5.08581179e-05, -5.08581179e-05, 0., 0., 0.,
          0., 0., 0., -5.08581179e-05, -5.08581179e-05, 3.73440525e-05,
          -2.63976654e-05, -6.85026462e-05, -0.0001274237,
          -7.47619924e-05, 0., -1.05647159e-05, -8.77551884e-06,
          -3.33554199e-05, -5.08581179e-05, -5.08581179e-05,
          -5.08581179e-05, 0., 0., 0., 0., 0., 0., -5.08581179e-05,
          -5.08581179e-05, 0.000150348831, 0.000150348831,
          0.000108243847, 4.9015729e-05, 1.46141483e-05, 0.,
          -1.05647159e-05, -8.77551884e-06, -3.33554199e-05,
          -5.08581179e-05, -5.08581179e-05, -5.08581179e-05, 0., 0., 0.,
          0., 0., 0., -5.08581179e-05, -5.08581179e-05, 0.000150348831,
          0.000150348831, 0.000108243847, 5.08581179e-05, 1.24257658e-05,
          0., -1.05647159e-05, -8.77551884e-06, -1.50401047e-05,
          -5.08581179e-05, -5.08581179e-05, -5.08581179e-05, 0., 0., 0.,
          0., 0., 0., -5.08581179e-05, -5.08581179e-05, 0.000150348831,
          0.000150348831, 0.000108243847, 5.08581179e-05,
          -2.95220252e-05, 0., -1.05647159e-05, -8.77551884e-06,
          -1.84783471e-06, -5.08581179e-05, -5.08581179e-05,
          -5.08581179e-05, 0., 0., 0., 0., 0., 0., -5.08581179e-05,
          -5.08581179e-05, 0.000150348831, 0.000150348831,
          0.000108243847, 6.28273165e-06, -7.44976933e-05, 0.,
          -1.05647159e-05, -8.77551884e-06, 4.33570422e-05,
          -5.08581179e-05, -5.08581179e-05, -5.08581179e-05, 0., 0., 0.,
          0., 0., 0., -5.08581179e-05, -5.08581179e-05, 0.000150348831,
          0.000150747714, 6.41665029e-05, -0.000128515967,
          -7.71718987e-05, 0., -1.47160099e-05, -2.48217361e-06,
          0.000110210785, -5.08581179e-05, -5.08581179e-05,
          -5.08581179e-05, 0., 0., 0., 0., 0., 0., -2.93182093e-05,
          -1.31632778e-05, 0.000184580422, 7.19424061e-05,
          -8.24773379e-05, -0.000150348831, -7.71718987e-05, 0.,
          -1.73105691e-05, 6.81338497e-05, 0.000190952225,
          -1.31632778e-05, -1.3961052e-05, -3.29081959e-05, 0., 0., 0.,
          0., 0., 0., -1.31632778e-05, 0., 0.00015153976, 0.,
          -8.41875808e-05, -0.000150348831, -7.71718987e-05, 0.,
          6.01484317e-06, 0.000176357731, 0.000201206945, 0., 0.,
          -1.31632778e-05, 0., 0., 0., 0., 0., 0., -9.97218012e-06, 0.,
          0.000138125964, 0., -8.41875808e-05, -0.000150348831,
          -7.71718987e-05, 2.92802724e-05, 0.000161013071,
          0.000201206945, 0.000201206945, 0., 0., -4.78664651e-06, 0.,
          0., 0., 0., 0., 0., -3.39054122e-06, 0., 0.000138125964, 0.,
          -8.41875808e-05, -0.000150348831, -3.53485775e-05,
          0.000183105483, 0.00018389638, 0.000201206945, 0.000201206945,
          0., 0., -2.99165413e-06, 0., 0., 0., 0., 0., 0.,
          -2.07421344e-05, -9.17440593e-06, 0.000162745113,
          4.7608296e-06, -5.6276258e-05, -2.35928019e-05, 0.00010232583,
          0.000168777478, 0.000161396165, 0.000187644779, 0.000187644779,
          -1.35621649e-05, -1.35621649e-05, -2.67254436e-05, 0., 0., 0. ]
